layer1/weights:0[[[[-8.00349098e-03 -8.39841366e-03  1.27976178e-03 -2.29334701e-02
    -1.42358821e-02  1.34824710e-02 -1.08602699e-02  7.23943254e-03
    -7.67670618e-03  5.46425639e-04  3.50885489e-03 -8.98061693e-03
    -1.66376811e-02 -9.10662301e-03 -6.06504455e-03 -1.92911997e-02
     1.20651424e-02 -5.50799631e-03 -1.70035288e-02 -8.36487487e-03
    -2.66504451e-03  8.16721376e-03  1.16613116e-02  3.31446435e-03
     2.28581894e-02 -4.51577175e-03 -1.14131318e-02 -1.84042685e-04
    -3.38966586e-03 -7.97985028e-03 -3.50197102e-03  1.34152276e-02]
   [ 8.30961042e-04  1.98413501e-03  1.54227845e-03 -1.30733903e-02
     2.33401917e-02  2.90082907e-03 -3.34316911e-03 -1.45862363e-02
    -1.39608532e-02  2.61518778e-03  3.20578972e-03  4.87217959e-03
     2.99762050e-03  5.12581493e-04 -8.36329069e-03 -3.31334467e-03
    -6.57070708e-03 -1.00704171e-02 -1.03887345e-03 -2.13461509e-03
    -5.49842510e-03  1.14613920e-02 -4.58993064e-03  4.32924088e-03
     9.61718615e-03  7.46219244e-04  9.69429594e-03 -1.57165732e-02
     1.35869496e-02  2.77035963e-03  1.40373325e-02 -4.05687187e-03]
   [-7.59004251e-05 -6.02350570e-03  8.62348266e-03  9.36294091e-04
     4.25175484e-03  4.06345213e-03  9.95656243e-04 -1.71765289e-03
     9.86075681e-03  1.89364888e-02  8.28218646e-03  1.18422238e-02
    -3.47845629e-03  7.13927438e-03  7.12964043e-04 -2.95626512e-03
    -5.51263522e-03 -6.72392221e-03 -1.34639228e-02 -1.57175644e-03
     1.28782366e-03  4.75536421e-04 -1.98056139e-02 -8.34569684e-04
     1.72346700e-02  2.00854521e-02 -6.56629121e-03 -5.68739465e-03
     5.03211794e-03  1.76212508e-02  1.12615060e-03  4.50461963e-03]]

  [[ 2.02264450e-02 -1.75222717e-02  1.59970541e-02 -1.26172295e-02
    -3.31696356e-03  1.33795561e-02  5.99067658e-03 -1.16942148e-03
     4.09721630e-03  9.56927799e-03 -9.20073316e-03  1.01284105e-02
    -1.36129577e-02  5.85119007e-03 -8.37847870e-03  1.59694511e-03
    -1.55873848e-02 -3.84326745e-03 -1.90667564e-03 -6.10370608e-03
     1.79139897e-02 -8.18817134e-05 -9.91448946e-03  3.45863315e-04
     1.27506573e-02  4.40606102e-03  2.05223332e-04 -9.91216116e-03
     9.29310545e-03  9.27793328e-03 -5.07287821e-03 -3.19599942e-03]
   [ 2.30188784e-03 -3.59575148e-03 -4.67393920e-03 -1.14755370e-02
     7.21241580e-03 -8.26033670e-03  6.34954590e-03  2.23555304e-02
     4.63479577e-04 -1.60045009e-02  1.45907197e-02  1.48399100e-02
     8.26426037e-03 -7.59048946e-03  1.25638954e-03 -7.08777364e-03
    -6.71072863e-03 -2.19347216e-02  6.27811207e-03 -1.55941676e-02
    -1.85102560e-02 -1.26448730e-02 -4.38830769e-03  8.12525209e-03
     1.58151183e-02 -1.65477535e-03 -1.00770835e-02 -3.11419368e-02
    -1.19968015e-03 -6.09190064e-03  2.67254468e-03 -1.38199581e-02]
   [ 5.55077381e-03  9.59743396e-04 -7.64813693e-03  9.95085761e-03
    -6.18518470e-03 -1.23242941e-02 -5.42779313e-03 -8.52456409e-03
    -2.29450446e-02 -1.91799123e-02  7.39250099e-03  1.49607044e-02
    -6.56915735e-03 -6.33581635e-03  9.64157842e-03 -1.09265167e-02
     2.54341662e-02 -1.22991228e-03  7.80864619e-03 -2.19049361e-02
    -4.31508478e-03  7.45438971e-03 -9.15539265e-03  1.22969849e-02
    -7.75146345e-03 -7.25257094e-04 -4.09390451e-03 -9.02757794e-03
    -2.01356150e-02  1.15780840e-02 -7.24359695e-03  1.01940418e-02]]

  [[ 7.31145672e-04 -5.67038171e-03  4.94329073e-03  2.55324487e-02
     1.47801284e-02 -8.50005820e-03 -2.28277873e-02  1.84575412e-02
    -2.28376384e-03  9.78031661e-03  2.91067036e-03  1.98998265e-02
     5.93373738e-03  1.49306059e-02  6.14247890e-03  1.70045521e-03
     6.44497015e-03  3.94262001e-03 -8.64742510e-03 -1.84729230e-03
    -9.70117468e-03  6.68038474e-03  6.50398713e-03  8.78871977e-03
    -8.37183557e-03 -1.25227123e-02  5.60526177e-03 -1.26990890e-02
    -9.97519679e-03  5.46140503e-03 -8.83523002e-03  7.34716374e-03]
   [-8.55776574e-03  7.46350130e-03  8.21984868e-05 -3.20189493e-03
     1.08114779e-02 -1.97169092e-02 -4.25607851e-03 -7.20682321e-03
    -1.37631977e-02  4.16462542e-03  1.11741927e-02 -6.81822049e-03
     1.26044138e-03 -1.97409140e-03 -1.27744675e-03  7.07593467e-03
    -1.58729451e-03  5.45866927e-03 -8.42524972e-03  6.70713792e-03
    -2.14815303e-03 -1.22894822e-02 -2.61517521e-03  6.90716878e-03
    -3.00121517e-03  9.34165064e-03 -1.35466317e-02  6.11936674e-03
     4.98881622e-04 -9.41677310e-04  2.21850793e-03 -2.76366435e-02]
   [ 2.69696470e-02  6.68251747e-03 -2.24624481e-03  2.59689614e-03
     4.72148787e-03  1.00520672e-04 -1.18756182e-02  3.93865863e-03
     7.44923111e-03  3.77662969e-03  1.50880152e-02  3.27398744e-03
     1.46624856e-02 -6.79660309e-03  1.43645389e-03 -5.59766559e-05
     5.49776945e-04 -1.10845128e-02  1.89806524e-04 -8.30943696e-03
     1.96656142e-03  1.01397075e-02 -1.53563945e-02 -1.02324681e-02
     1.28206201e-02 -1.79851968e-02 -1.06497733e-02  5.78194577e-03
    -1.25496369e-03  1.57219078e-02 -1.67987701e-02  6.81990859e-05]]]


 [[[-8.08596425e-03  4.77636047e-03  1.75278913e-03 -5.21988980e-03
    -1.20068584e-02  7.02752208e-04 -4.12364583e-03 -1.59773324e-02
    -6.62238011e-03 -8.50446802e-03 -7.42003648e-03 -6.00216864e-03
    -1.54216625e-02 -2.55645113e-03 -4.14629281e-03 -2.80010160e-02
    -2.34516524e-03 -1.20942332e-02  1.57175474e-02 -1.24840289e-02
     4.23082709e-03  1.40264202e-02  2.21653376e-03  2.77805305e-03
    -5.26673626e-03 -1.04951588e-02 -1.46476207e-02  4.62088548e-03
    -1.03599718e-02  2.06486043e-02  4.32560360e-03 -6.40402641e-03]
   [-2.10388890e-03 -4.89236275e-03  4.26745322e-03 -5.98911080e-04
    -3.74587323e-03 -1.78319588e-03  9.45761055e-03 -1.26647353e-02
     1.57140568e-03  2.26830831e-03 -1.60558578e-02 -4.97154891e-03
    -2.03776658e-02  9.44423396e-03  1.92919557e-04 -1.06380237e-02
    -5.91144245e-03  1.02516857e-03 -4.63488465e-03  1.58770266e-03
    -1.25102485e-02  6.40112441e-03  6.11727999e-04 -3.50894150e-03
    -1.64726321e-02  2.26727265e-04  6.67217467e-03 -1.67583842e-02
     9.54429060e-03 -9.67904739e-03  2.06828564e-02  6.76453626e-03]
   [-1.17459381e-02  1.10281026e-02 -8.11380614e-03  1.77891254e-02
    -9.44943726e-03  6.45126635e-03 -2.19071331e-03 -8.26545118e-04
     8.45179800e-03  1.39893508e-02 -2.05603670e-02  1.00580379e-02
    -8.31282232e-04  4.08327905e-03 -5.34444116e-03 -1.15706008e-02
    -3.10518802e-03  1.09342718e-02 -3.80230136e-03 -2.70596263e-03
     5.13669429e-03  3.49976268e-04 -2.81480290e-02  1.01085175e-02
     4.08441061e-03  1.37228481e-02  4.00194712e-03  3.64930858e-03
    -6.02505822e-03 -9.47291788e-04 -3.51548730e-03  9.45379026e-03]]

  [[-5.53690502e-03 -1.62228558e-03  9.77895502e-03 -1.16536056e-03
    -8.84813908e-03  2.42731557e-03  9.63454507e-03  2.91084871e-03
     1.57482736e-02  4.14416986e-03  1.01133552e-03 -6.14144700e-03
    -7.37846247e-04  1.13021117e-02  3.67586687e-03  5.24158007e-04
     2.49081088e-04  1.96923781e-02 -1.69377904e-02 -7.33193615e-03
     3.70883150e-03  1.10379413e-04 -1.51839294e-03 -9.65411402e-03
     7.25522544e-03 -2.79834052e-03 -1.95042975e-03 -1.82013772e-02
    -7.65091414e-03 -2.01603044e-02 -9.48422402e-03 -1.16714230e-02]
   [-1.29628927e-02 -7.95856584e-03  2.95515778e-03  1.64267886e-03
    -4.64180624e-03 -2.81384238e-03 -4.97206720e-03 -3.79643589e-03
    -1.63582955e-02 -2.04040157e-03  4.97208070e-03  3.05428263e-03
    -1.81026862e-03  2.57497723e-03 -2.96201766e-03  9.91666503e-03
     1.17733711e-02 -5.05435094e-03  7.79653806e-03 -1.50545761e-02
    -1.61373615e-02 -1.31111946e-02 -8.38070177e-03 -5.50797023e-03
    -1.81267057e-02  8.01798142e-03 -7.25575211e-03 -3.04494053e-02
     7.58263189e-03  1.24850180e-02 -3.49304336e-03 -1.53897572e-02]
   [-1.64007191e-02 -1.84449938e-03  7.42958335e-04 -7.24894367e-03
    -1.80423316e-02 -8.88975454e-04 -2.83557549e-03  8.84141121e-03
     1.72243640e-02 -8.50564521e-03  5.56247483e-04 -5.55981975e-03
    -6.87758904e-03  5.19644283e-03  5.37488237e-03 -4.34879586e-03
     8.02672468e-03 -2.34134402e-03 -4.28005401e-03 -1.02057392e-02
    -8.61390072e-05  4.12409008e-03 -6.07849378e-03  1.13747576e-02
     7.44170696e-03 -1.05881477e-02 -2.42971792e-03  4.69465274e-03
    -6.14660839e-03  6.71302574e-03 -9.29749943e-03 -2.22965982e-03]]

  [[-2.05154028e-02  6.72665949e-04 -1.32493358e-02  7.62233976e-03
    -8.10016133e-03 -1.36383725e-02 -1.22209881e-02  3.25957872e-03
    -2.79808580e-03 -2.34748870e-02  1.86842885e-02 -5.02515305e-03
    -5.81390318e-03 -1.03820236e-02 -2.99832877e-03  1.07780788e-05
     6.04263274e-03 -1.54827954e-02  6.00747345e-03 -1.59927979e-02
    -1.25669139e-02 -1.05911428e-02 -5.94731513e-03  1.32937813e-02
    -1.91412214e-02 -9.26398393e-03  3.12271784e-03 -1.17563764e-02
    -1.50195435e-02  6.62973570e-03 -1.15181971e-02  1.55414746e-03]
   [ 6.47706352e-03 -5.94645971e-03  8.86649359e-03  1.53118903e-02
    -9.48180910e-03 -3.19982646e-03  1.00072222e-02  9.82426293e-03
    -2.69793458e-02 -8.03060550e-03  3.77509044e-03  1.94927324e-02
     1.17797144e-02  8.28265504e-04  1.75124537e-02  2.28302293e-02
    -3.26343556e-03 -1.87887773e-02 -9.17227753e-03  3.53205740e-03
     8.54394771e-03 -2.79265339e-03 -5.98841486e-03  2.86851190e-02
    -9.01085977e-03  4.10075154e-04 -2.35840259e-03 -1.05409762e-02
     1.51389064e-02  1.77036657e-03 -1.20523758e-02 -1.59883421e-04]
   [ 5.02545526e-03  1.15390932e-02  7.79895671e-03 -1.30617479e-02
    -1.00486120e-03 -6.31741714e-03 -3.01824417e-03 -2.00966559e-02
     2.07978841e-02 -2.33737994e-02 -1.31616765e-03  7.96374516e-04
     7.14058522e-03  1.26388865e-02  1.38492435e-02  3.68392398e-03
     1.58473626e-02  8.93144310e-03  2.13025417e-02  3.59672820e-03
     4.62857401e-03  2.53517204e-03 -4.47553257e-03 -1.37273110e-02
     7.44136935e-03  4.68564034e-03 -4.69541224e-03 -3.16812983e-03
    -8.32567178e-03  1.29030803e-02 -1.73834513e-03  5.09699015e-03]]]


 [[[ 5.23753278e-03 -2.13326551e-02  6.34868443e-03 -9.09481011e-03
    -2.21314169e-02 -5.52660460e-03  1.23344967e-02 -9.21976473e-03
     9.49394889e-03  8.92588031e-03 -2.68363543e-02 -5.73603995e-03
     8.35041422e-03  1.17186327e-02 -1.09640846e-03 -2.98194733e-04
     9.43415985e-03  1.08035095e-03  3.94922681e-03  8.49391147e-03
    -5.29236021e-03  6.55193231e-04 -9.32257343e-03 -8.90337490e-03
    -1.70113624e-03  1.57984551e-02 -7.88986590e-03  5.78076439e-03
     1.36000500e-03 -2.03065816e-02  6.78041484e-03  5.68248332e-03]
   [-4.28020256e-03 -1.11084655e-02  7.31077231e-03 -5.80558367e-03
     1.36650754e-02 -1.14557920e-02  7.11836852e-03  9.02334135e-03
    -1.36118736e-02 -1.00064259e-02  2.17063539e-03 -1.72333289e-02
     9.31191389e-05  4.44830582e-03  8.85584019e-03 -4.76930727e-04
     3.98925319e-03  4.55059623e-03 -4.50733164e-03 -3.83644085e-03
     5.87895000e-03 -6.62923418e-03  1.69634894e-02  3.79007310e-03
    -1.71218277e-03 -1.89837033e-03  1.06660230e-02 -3.40246642e-03
     1.21969553e-02 -1.11330608e-02  1.36740841e-02 -7.14392634e-03]
   [-1.76152941e-02  2.36162520e-03 -1.08108041e-03 -1.67606827e-02
    -1.83441918e-02  9.17717442e-03  1.07606910e-02 -1.13222431e-02
    -6.71318965e-03  2.19692439e-02 -1.79786999e-02 -1.17297182e-02
    -2.20012007e-04 -2.44563706e-02 -2.80785980e-03  2.22384828e-04
     1.12263835e-03  5.47435321e-03  1.49076413e-02  5.58078801e-03
    -1.17876902e-02  5.86275151e-03 -1.21835561e-03 -1.32391993e-02
     3.16829002e-03 -6.74043200e-04  1.85703896e-02 -3.78108793e-03
    -8.40360858e-03 -5.63291973e-03 -2.23874748e-02  1.35140046e-02]]

  [[-1.84590537e-02  2.70417016e-02  8.09664465e-03  1.00674285e-02
     6.01650588e-03 -9.07918438e-03 -3.59293539e-03  8.13948084e-03
    -4.02399478e-03 -9.90760326e-03  6.14663865e-03 -1.26677030e-03
     4.94138105e-03  1.66775417e-02  3.64994328e-03 -1.24526443e-02
     6.94124494e-03  8.82470142e-03 -3.28031811e-03  5.03183203e-03
     7.85494281e-04 -4.14004177e-03 -5.56980819e-03 -9.12677869e-03
    -9.08679888e-03 -8.99027660e-03  1.44622922e-02  1.00620626e-03
     6.10080408e-03  7.06521980e-03  7.04815332e-03  9.85922664e-03]
   [ 3.91219649e-03 -8.20401683e-03  1.19959265e-02  5.02214395e-03
     5.38385799e-03 -4.58519859e-03 -1.42817677e-04 -6.28168834e-03
    -1.52958278e-02  1.75770484e-02 -3.43943411e-03 -1.00442413e-02
    -4.35657240e-03  7.32467044e-03 -3.69148073e-03  1.66174723e-03
     1.88592635e-03 -9.53627168e-04 -8.55239294e-03  2.34641694e-03
     2.70234048e-03  1.77996848e-02 -3.17933038e-03  1.18168872e-02
     7.70948874e-03  2.36067665e-03  1.74329411e-02 -1.66541561e-02
     2.54447609e-02 -1.32812811e-02  6.00709440e-03 -1.36015201e-02]
   [ 3.10552749e-03  1.07500842e-03 -3.30391899e-03 -4.26422479e-03
     9.24990792e-03  1.19593861e-02  3.45032359e-03 -3.89796705e-03
    -3.23866331e-03 -1.91935094e-03 -1.86721946e-03 -1.63899902e-02
     1.37209790e-02  8.90160911e-03 -5.24238776e-03  1.01675624e-02
    -5.51082101e-03  1.80897815e-03  2.50131614e-03  2.01330166e-02
     8.94152280e-03 -3.21691781e-02  6.44999323e-03  7.39142299e-03
     1.50009617e-02  8.65866430e-03  1.86391007e-02  4.77933744e-03
     1.42011587e-02 -6.90060947e-03 -1.97971030e-03 -1.47423185e-02]]

  [[ 6.52662059e-03  1.06466643e-03  6.39182702e-03 -3.34513676e-03
     7.51365814e-03 -8.33577104e-03  4.28461749e-03  1.30066685e-02
     7.27163535e-03  9.39744152e-03 -8.46743176e-04 -7.16859102e-03
     5.34436433e-03  1.90108940e-02  1.91950519e-02 -1.19933831e-02
     1.07155219e-02  5.12241572e-03  4.43379907e-03 -1.04531518e-03
    -7.87904672e-03 -1.02497758e-02 -1.30982986e-02  3.24563961e-03
     6.19363133e-03  6.93625910e-03  1.00552943e-02 -4.66397312e-03
     3.97067517e-03 -2.29163282e-02  1.03698261e-02  6.88033504e-03]
   [ 3.09500657e-03 -9.92918108e-03  1.89117680e-03  6.87182136e-03
     9.75333154e-03 -3.37460414e-02 -5.22229448e-03 -4.14974988e-03
    -5.66419028e-03  4.55657160e-03  8.88310000e-03 -5.01589524e-03
     1.44362636e-03  8.79203528e-03 -1.54384633e-03  1.16937384e-02
    -1.74766630e-02 -2.09137215e-03  1.74731817e-02 -7.50504434e-03
    -2.40613334e-03 -1.27373189e-02  5.96356904e-03  2.68714270e-04
     6.95652934e-03 -1.25119351e-02 -1.43053867e-02 -4.44360822e-03
     1.04356576e-02 -1.95279345e-02 -1.80764627e-02 -1.23476908e-02]
   [ 1.66904123e-03  6.49781944e-03 -8.61382519e-04  6.02955651e-03
     6.35822164e-03  2.18917038e-02  1.50079494e-02 -1.07796667e-02
    -1.63042564e-02 -6.46954053e-04 -1.99285088e-04 -1.01489350e-02
    -4.50933119e-03  1.63036631e-03  2.19797380e-02 -6.37600664e-03
     1.96917374e-02  1.16523104e-02  1.39463861e-02 -6.96334289e-03
    -1.76045801e-02  2.92686396e-03 -2.09832285e-03  9.40002967e-04
     1.10573648e-02 -1.24216089e-02 -8.83844215e-04 -7.52713392e-03
    -1.57590844e-02  7.33494712e-03 -2.66740983e-03 -7.04558380e-03]]]]layer2/weights:0[[[[-3.78882303e-03  1.41031798e-02  3.10906838e-03 ... -2.33517662e-02
     2.39312239e-02  1.42300893e-02]
   [-3.34474724e-03  1.08942036e-02 -7.22317418e-05 ... -2.92058685e-03
    -6.39926409e-03  3.39233270e-03]
   [ 7.84036238e-03  9.70497448e-03  6.60400232e-03 ...  5.96501119e-03
     1.94460265e-02 -6.63618743e-03]
   ...
   [ 7.15902867e-03  2.19187755e-02  1.02352817e-02 ... -4.05383483e-03
    -1.94836445e-02  2.68021505e-03]
   [ 1.80821288e-02  5.34611987e-03 -4.23754845e-03 ...  6.49836147e-03
    -1.29450355e-02 -6.12665550e-04]
   [ 1.62622388e-02  1.32654058e-02  7.12363806e-04 ...  1.35439700e-02
    -3.57600907e-03 -1.71269495e-02]]

  [[ 1.35787262e-03 -1.18179936e-02  4.30224172e-04 ...  3.28531326e-03
    -1.23703934e-03  9.50480113e-04]
   [ 1.58704668e-02 -2.60979799e-03  9.28058103e-03 ... -1.65577978e-02
     6.02640072e-03  5.37864584e-03]
   [ 1.27847027e-02  1.12068225e-02 -3.75295337e-03 ... -7.14507233e-03
    -6.09996449e-03  4.69931867e-03]
   ...
   [-4.51600924e-03  1.52074536e-02  8.67147371e-03 ... -1.66144059e-03
     1.75708451e-03 -1.72262080e-03]
   [-8.06093961e-03  6.13966840e-04  8.02046154e-03 ...  1.14560015e-02
     1.13220774e-02  8.36756174e-03]
   [ 4.58026631e-03  1.31181795e-02 -1.47712715e-02 ...  6.76185358e-03
     2.53454223e-03 -4.41761315e-03]]

  [[-3.71336308e-03  1.59996096e-03  1.61116794e-02 ...  7.61529664e-03
    -9.42496816e-04 -4.30747028e-03]
   [-3.15585872e-03  1.28384028e-02  3.11957439e-03 ...  5.49131259e-03
     1.39068067e-03  1.81067511e-02]
   [-2.30974692e-04 -6.59692381e-03  8.38625804e-03 ... -3.06895375e-03
     8.93498119e-03 -6.43416494e-03]
   ...
   [-9.97131690e-03  7.67363235e-03 -4.47921641e-03 ...  4.21420578e-03
     5.49341831e-03 -3.21237347e-03]
   [ 5.77350846e-03  1.56560056e-02  1.31152978e-03 ... -4.96538263e-03
    -6.18806574e-03 -6.37286715e-03]
   [-5.30434307e-03 -2.35046819e-02  2.51473067e-03 ...  7.65059423e-03
     1.53714828e-02 -1.13181770e-02]]]


 [[[-2.06238148e-03 -5.64944884e-03  1.25804953e-02 ... -8.79161898e-03
     2.00038124e-03  3.86826531e-03]
   [-1.90660567e-03 -3.91020672e-03  1.13381827e-02 ... -2.59487005e-03
    -7.97101669e-03 -1.13340409e-03]
   [ 1.06560322e-03  5.97596681e-03 -1.58305978e-03 ...  1.32269217e-02
    -9.85662267e-03 -1.23185916e-02]
   ...
   [-1.86076798e-02  4.61509963e-03 -5.72185963e-03 ...  1.41855041e-02
     9.44064185e-03  1.61240492e-02]
   [-4.85548796e-03 -8.17354594e-04 -1.35869673e-02 ...  6.06053649e-03
     3.41697736e-03  1.40455071e-04]
   [ 7.14248046e-03 -8.69749393e-03 -2.69797957e-03 ... -6.13279268e-03
     5.21637406e-03 -2.13675387e-02]]

  [[-1.21978950e-02 -5.04264561e-03 -1.29882321e-02 ...  2.29791701e-02
    -1.13990428e-02 -5.16299298e-03]
   [-1.50716444e-02  8.67250934e-03 -1.28396684e-02 ...  3.70571367e-03
     3.04940958e-02  1.10354805e-02]
   [ 3.11122509e-03  5.68108400e-03 -6.37014583e-03 ... -1.24594441e-03
     3.11741070e-03  1.27156116e-02]
   ...
   [-1.13947485e-02  5.62346680e-03  2.16946378e-03 ... -4.42086440e-03
    -2.88411905e-03  1.80402156e-02]
   [ 5.01019368e-03 -7.00641563e-03 -1.97228347e-03 ... -8.72803386e-03
     6.75315317e-03 -9.84108541e-03]
   [ 2.26502605e-02 -2.67472654e-03 -1.16118155e-02 ...  1.13739120e-02
    -8.89420882e-03 -1.96164218e-03]]

  [[-1.12276031e-02 -3.20063606e-02  2.99224444e-03 ...  1.56509895e-02
    -1.11116900e-03  9.44593176e-03]
   [ 4.62113274e-03  6.05278928e-03 -1.25135062e-02 ...  7.02039711e-03
     1.29735740e-02  2.35441676e-03]
   [ 4.66586044e-03  2.64054257e-02 -5.18572982e-03 ...  1.29864169e-02
     1.38204377e-02  3.60710779e-03]
   ...
   [ 6.62272214e-04  2.12447550e-02  4.84603830e-03 ... -7.96133094e-03
     1.22770453e-02 -3.60581069e-03]
   [ 7.84932077e-03  4.74907132e-03 -1.31097957e-02 ...  1.92031637e-03
     8.00364744e-03 -7.53857370e-04]
   [ 1.76193961e-03  1.14491966e-03 -8.80546123e-03 ...  7.09579140e-03
     2.08910997e-03 -1.96641590e-02]]]


 [[[ 7.73467240e-04 -7.62471755e-04 -5.97283291e-03 ... -6.76831882e-03
     1.24784671e-02  7.60918902e-03]
   [ 7.56315608e-03  5.87702962e-03 -1.50622558e-02 ... -2.07986892e-03
     4.63022664e-03  3.93322669e-03]
   [ 7.93910678e-03 -8.04420095e-03  1.42649980e-02 ...  5.38643030e-03
     1.91661529e-02 -2.31842743e-03]
   ...
   [ 1.80604924e-02 -9.43820830e-03 -6.71714405e-03 ... -1.03821335e-02
     1.89293572e-03 -6.99613534e-04]
   [-8.25870223e-03  1.50419213e-03 -4.32745740e-03 ...  1.25158858e-03
     2.20907899e-03 -3.28738266e-03]
   [-6.11499976e-03 -5.38881915e-03 -2.92588770e-03 ...  1.93488610e-03
     3.97224794e-04  5.88494222e-05]]

  [[-1.56158684e-02  3.18343006e-03  6.65108394e-03 ... -1.36090498e-02
     7.97589496e-03  1.35647235e-02]
   [-1.19849602e-02 -5.95333520e-03 -1.35353357e-02 ...  1.39753716e-02
     6.95498427e-03 -5.48275886e-04]
   [ 4.96514328e-03 -9.52981692e-03 -1.62184797e-02 ...  7.26453308e-03
     4.13593976e-03  1.31949140e-02]
   ...
   [-4.59614722e-03 -6.69596065e-03 -3.48429242e-03 ... -1.11377183e-02
     1.31825591e-02  5.47479559e-03]
   [ 3.09308083e-03  1.97767690e-02  5.12767583e-03 ...  4.68192995e-03
     2.08832063e-02 -2.57453956e-02]
   [-1.10977786e-02  1.35468406e-04  1.39001794e-02 ...  1.52892871e-02
    -8.85842741e-03  8.61089490e-03]]

  [[-7.29624135e-03  7.86858797e-03  1.24111231e-02 ...  2.99623255e-02
    -2.63850465e-02 -9.73576307e-03]
   [-1.33357719e-02 -2.39172578e-03 -1.26897969e-04 ... -2.32827477e-03
     2.00346038e-02 -6.49577985e-03]
   [ 6.81991968e-03  1.12141832e-03  2.15352373e-03 ... -2.15546694e-02
     3.46450624e-03 -2.04237265e-04]
   ...
   [ 3.39433528e-03  3.14477296e-03 -4.84070508e-03 ... -9.17916372e-03
     1.34456027e-02  6.76421565e-04]
   [-5.80189936e-03 -1.52826570e-02 -3.88331525e-03 ... -1.49380509e-02
     3.40775750e-03 -1.09104859e-02]
   [ 2.14103013e-02 -6.00956567e-03 -1.13516171e-02 ...  1.10863056e-02
     1.13201160e-02  1.04731265e-02]]]]layer3/weights:0[[[[ 2.35887826e-03  5.10924449e-03  7.15935649e-03 ... -1.39437243e-02
     1.79413576e-02  1.91283494e-03]
   [ 1.27660387e-04  1.43600674e-03  1.36377839e-02 ... -1.23459809e-02
     8.24547652e-03 -1.80783158e-03]
   [ 5.44580026e-03 -1.25232283e-02  1.40900603e-02 ...  1.18697323e-02
    -9.17610887e-04  8.87258258e-03]
   ...
   [ 9.87556111e-03 -9.57500562e-03 -9.17153340e-03 ...  2.19547879e-02
    -8.64705071e-03  1.56233949e-03]
   [-2.62423826e-04  9.42685362e-03 -1.30593982e-02 ... -2.00786116e-03
    -1.93188842e-02  8.00403580e-03]
   [ 2.95583461e-03 -3.95733165e-03 -9.12571233e-03 ... -1.65229961e-02
    -2.05284879e-02 -6.22162409e-03]]

  [[ 1.07708555e-02 -1.25709046e-02 -3.58181744e-04 ... -1.72138177e-02
    -3.13380314e-03  2.18537240e-03]
   [-3.88111407e-03 -5.76209230e-03 -5.02211880e-03 ...  3.22410895e-04
     1.26827986e-03  4.36549541e-03]
   [-3.33681679e-03 -1.25177195e-02 -3.33313132e-03 ... -1.17507922e-02
     1.02946619e-02  8.56212620e-03]
   ...
   [-8.12670274e-04 -1.35279037e-02  3.57382908e-03 ...  1.29499556e-02
    -3.74034420e-03 -1.25773326e-02]
   [-2.08395105e-02  4.27756831e-03 -1.98519062e-02 ...  1.15071349e-02
     4.66556102e-03  1.05242003e-02]
   [-7.71190831e-03 -9.24683642e-03  1.24640763e-03 ... -1.18008954e-02
    -3.54899839e-03  5.51005546e-03]]

  [[ 2.48413952e-03 -7.22565409e-03 -1.56374890e-02 ... -1.71738490e-02
     1.81320868e-02  6.58833981e-03]
   [-1.32285280e-03 -2.50329264e-03  2.54531857e-02 ...  7.87968189e-03
     9.51238070e-03  6.38209423e-03]
   [-1.39954919e-02 -5.05050085e-03 -5.78269921e-03 ...  9.42356512e-03
    -1.30852452e-02 -2.20474247e-02]
   ...
   [-1.50087778e-03  6.48481539e-03  5.50801866e-03 ... -3.35060456e-03
    -4.50716261e-03  7.80252228e-03]
   [-5.02446434e-03 -4.36756341e-03  4.36072564e-03 ...  9.12658125e-03
     4.76548076e-03 -5.02718892e-03]
   [ 1.27139771e-02 -2.44841184e-02  3.56400246e-03 ... -6.62385859e-03
     8.35430529e-03  1.03204083e-02]]]


 [[[-1.03423698e-02  1.80295166e-02 -5.92204276e-03 ... -1.18279709e-02
    -1.12705389e-02 -1.36952503e-02]
   [-5.80974016e-03  1.48803601e-02  6.53184950e-03 ... -5.62256528e-03
     2.11196393e-03  1.14887469e-02]
   [ 2.53336690e-02  3.96652520e-03  5.34092216e-03 ... -6.84985379e-03
    -9.31311492e-03  4.12856741e-03]
   ...
   [-4.16834228e-04 -1.25299860e-02 -1.57066155e-04 ... -6.64454594e-04
    -3.98705574e-03 -1.22150397e-02]
   [-1.19609535e-02 -5.27524855e-03  1.71541031e-02 ...  1.40055912e-02
    -1.78353786e-02 -9.05745476e-03]
   [-4.18832293e-03 -1.11505538e-02 -8.76608398e-03 ... -1.27428221e-02
    -1.52766798e-02  8.52758903e-03]]

  [[-1.28149465e-02  8.60978011e-03  2.77828961e-03 ... -1.75935328e-02
     1.45561555e-02  9.98392794e-03]
   [ 2.20712600e-03  6.46458613e-03  1.98103394e-02 ... -7.38165574e-03
     1.30157042e-02  8.16505810e-04]
   [ 7.64490198e-03 -2.12328956e-02 -7.54900044e-03 ...  1.30799152e-02
     1.01491734e-02  1.17491372e-02]
   ...
   [-4.92879190e-03 -1.71438139e-02 -8.08784086e-03 ...  9.02752392e-03
     1.13565894e-03 -5.16514713e-03]
   [ 1.83226112e-02  5.01540862e-03 -4.81266016e-03 ...  3.46701359e-03
     5.38373506e-03  3.22180428e-03]
   [-3.42015200e-03 -6.57477602e-03 -2.28256360e-03 ...  8.77621863e-03
     8.70049931e-03 -3.51882377e-03]]

  [[-1.16849495e-02  9.53003205e-03 -3.15997098e-03 ... -9.65709519e-03
     6.84505980e-03  8.63805041e-03]
   [ 1.70267746e-02 -1.06456615e-02 -1.19699538e-02 ... -4.33551753e-03
    -1.18657267e-02 -3.08278395e-04]
   [ 2.58567627e-03 -2.28683674e-03  2.95517920e-03 ... -1.08722737e-02
     1.42088505e-02  1.32963136e-02]
   ...
   [-5.07131917e-03 -4.07010643e-03 -4.62079886e-04 ... -6.76015858e-03
    -1.85532756e-02  8.72244406e-03]
   [ 1.17644633e-03  2.14188825e-02  2.10171361e-02 ...  1.44741253e-03
    -3.29724001e-03  1.08209997e-02]
   [ 1.89274475e-02  2.30430886e-02  1.04386574e-02 ...  1.60118435e-02
    -1.96491573e-02  2.36660931e-02]]]


 [[[ 1.16070313e-02  1.36349322e-02 -7.77357630e-03 ... -4.32275701e-03
    -1.97982006e-02  1.15347030e-02]
   [-3.91128007e-03 -8.32564430e-04  5.51893702e-03 ... -1.59675162e-02
     2.45133601e-03 -1.70984659e-02]
   [-1.10915080e-02  6.28753938e-03 -7.19444267e-03 ... -1.25285722e-02
     3.93458223e-03 -1.26567027e-02]
   ...
   [-8.35234299e-03 -1.56425089e-02  9.41086467e-03 ... -3.41606811e-02
     9.98379546e-05  6.23464352e-03]
   [-2.59130727e-02  2.03693528e-02 -7.57308258e-03 ... -5.86296897e-03
     2.64107040e-03 -6.25015004e-03]
   [-4.73714972e-05  1.66027783e-03 -7.00393785e-03 ...  1.31702423e-02
    -6.05859561e-03  5.16044488e-03]]

  [[-1.59953570e-03  1.38577528e-03 -1.02071895e-03 ... -2.58687232e-02
    -1.27070276e-02 -1.85521208e-02]
   [ 3.31593095e-03  2.10203324e-02  1.45367719e-02 ...  6.24546083e-03
     2.31614690e-02 -1.84348766e-02]
   [ 1.25685576e-02 -7.27994891e-04  5.02593641e-04 ...  1.12611223e-02
     4.70731268e-03 -1.21037979e-02]
   ...
   [-4.07700613e-03 -4.31593927e-03  2.02481751e-03 ...  7.95515534e-03
     7.27534015e-03 -1.74006671e-02]
   [-6.57616090e-03 -2.38652853e-03  1.07155154e-02 ... -1.22824183e-03
    -1.63418166e-02 -1.72009580e-02]
   [ 2.43045017e-03  2.46389527e-02 -3.46693699e-03 ...  4.04962245e-03
    -8.45417380e-03 -9.72592365e-03]]

  [[-1.23825753e-02  1.15925139e-02 -2.51015811e-03 ... -2.75981836e-02
     7.29014922e-04 -1.12766800e-02]
   [-1.59341525e-02  4.63134050e-03  9.65628028e-03 ... -1.96214542e-02
    -1.67679004e-02  6.97569270e-03]
   [-9.63756721e-03  5.35300747e-03 -4.15825704e-03 ... -1.69259775e-02
     2.53846543e-03 -1.95137709e-02]
   ...
   [ 1.30474335e-02  2.24114619e-02 -3.54623259e-03 ...  7.11659668e-03
     4.27613314e-03  1.82995088e-02]
   [ 9.90073197e-04 -2.11433321e-02  9.19142086e-03 ... -4.46883822e-03
    -1.06820185e-02 -1.80443805e-02]
   [ 1.17051089e-03  8.05310812e-03 -6.11241965e-04 ... -1.11344073e-03
    -1.87778082e-02  4.84854728e-03]]]]layer4/weights:0[[[[-0.0050634  -0.00201082  0.01077437 ...  0.00266436 -0.00648112
     0.01159732]
   [ 0.00420356  0.02629629 -0.00012368 ...  0.01283784 -0.01010147
    -0.01483363]
   [ 0.00548056  0.00613202  0.01915362 ...  0.00484805 -0.00971239
    -0.00504519]
   ...
   [ 0.00129767  0.00868501  0.01071777 ... -0.00154792 -0.01907123
    -0.01592674]
   [-0.00246925 -0.00831565  0.00639202 ... -0.00169291 -0.00642505
     0.00121373]
   [-0.01204265  0.00650299 -0.01067757 ...  0.00191618  0.00942616
     0.00392031]]]]layer5/weights:0[[[[ 3.76498164e-03 -2.39297561e-03  3.21454764e-03 ... -6.18155533e-03
    -6.88857166e-03 -1.19640687e-02]
   [ 9.40991007e-03 -3.01417010e-03  9.18206666e-03 ... -7.87980761e-03
     1.36332652e-02  1.10770753e-02]
   [ 1.79656763e-02 -4.43259533e-03  1.88894589e-02 ... -2.53077567e-04
    -9.10838228e-03 -1.41398525e-02]
   ...
   [-1.15551641e-02 -1.68577842e-02  1.10841421e-02 ...  5.52103529e-03
     7.20319897e-03 -3.10546486e-03]
   [ 1.53828682e-02  1.17371110e-02 -1.19852787e-02 ...  2.81641376e-03
    -3.67633556e-03 -1.33979265e-02]
   [-2.09682179e-03 -1.91616677e-02  5.58560307e-04 ... -1.76686179e-02
    -1.08023733e-02  4.56271414e-03]]

  [[-6.26259856e-03  1.29438881e-02  1.45598911e-02 ... -1.05888415e-02
    -1.48112662e-02 -1.34465564e-03]
   [-8.85823090e-03 -1.41567467e-02 -8.84811115e-03 ...  9.26834624e-03
     1.63488444e-02 -1.12429745e-02]
   [-1.27936378e-02  6.55493792e-03  1.46842534e-02 ...  5.71526168e-03
    -2.29295995e-03 -6.20795833e-03]
   ...
   [-1.66596193e-02  8.25961679e-03  2.07866337e-02 ... -4.67468271e-05
     1.07145952e-02  3.72972898e-03]
   [ 1.36875473e-02 -1.65243130e-02 -1.55205736e-02 ...  1.87814911e-03
    -2.17155647e-02  5.27887387e-05]
   [-1.39961727e-02  1.07665509e-02 -7.28118978e-03 ...  5.67426113e-03
    -9.30777844e-03 -4.11656126e-03]]

  [[-3.96306161e-03  2.14404172e-05  6.80639583e-04 ...  9.61234793e-03
    -9.39049013e-03 -5.99362794e-03]
   [-1.79532310e-03  3.93231865e-03 -1.58299729e-02 ... -9.33858508e-04
     2.26807054e-02  1.96923851e-03]
   [-1.08970879e-02 -1.21958001e-04 -7.74293952e-03 ...  8.48972425e-03
    -6.35447120e-03  8.47032573e-03]
   ...
   [-1.57163069e-02  1.07312640e-02  1.26235653e-02 ... -1.23394448e-02
     3.63178365e-03 -6.13586453e-04]
   [ 1.71800498e-02  1.35829756e-02 -5.63923176e-03 ... -1.36365406e-02
    -1.96179561e-03 -8.44478142e-03]
   [-1.04150816e-03  6.13833428e-04  1.41985305e-02 ... -1.55231508e-03
    -1.33971842e-02 -3.42639815e-03]]]


 [[[-5.39011881e-03 -8.63398612e-03  1.30565055e-02 ...  7.81237846e-03
    -3.55754630e-03 -5.81811834e-03]
   [ 4.57217393e-04  2.22461694e-03  9.94198583e-03 ... -1.16219912e-02
     2.38092169e-02  2.03421921e-03]
   [-2.29548141e-02 -1.21711465e-02  1.43816345e-03 ... -2.86532869e-03
    -5.63745620e-03 -8.49550869e-03]
   ...
   [-9.26882308e-03 -7.86406454e-03  4.32330742e-03 ...  1.09389117e-02
    -2.34762412e-02  7.68773071e-03]
   [-2.16975599e-03 -5.07623143e-03  1.06920283e-02 ... -4.54648538e-03
     9.71925352e-03  1.11018019e-02]
   [ 8.78657028e-03 -4.10782453e-03 -4.40261094e-03 ... -2.53514294e-02
    -1.23130167e-02 -1.09339282e-02]]

  [[ 9.30910371e-03  1.86997131e-02 -3.29941860e-03 ... -1.11546870e-02
     1.28528173e-03 -1.14077404e-02]
   [-3.29518574e-03  1.96266570e-03 -6.97803777e-03 ...  1.68172712e-03
    -9.20159859e-04 -2.19581909e-02]
   [ 1.90737527e-02 -1.61825288e-02  5.68064442e-03 ... -3.42950225e-03
     4.47496539e-03  2.61670072e-02]
   ...
   [-5.47378603e-03 -1.04531115e-02  2.61897948e-02 ...  7.25635001e-03
     1.33374343e-02 -3.88356252e-03]
   [-2.58937333e-04  1.98112242e-03 -5.69913397e-03 ...  1.31576797e-02
    -5.60714584e-03  1.86345968e-02]
   [ 1.35319205e-02  1.42968912e-03  1.50429178e-02 ...  8.25674459e-03
     1.80799945e-03 -3.44286766e-03]]

  [[-1.22560905e-02  6.67209784e-03  2.30023963e-03 ... -1.26547888e-02
    -3.07609467e-03 -9.44108702e-04]
   [-6.75553782e-03  1.70621891e-02  3.64994048e-03 ... -7.90430978e-03
    -1.59317404e-02  3.30335950e-03]
   [-8.72407295e-03 -1.74954832e-02 -1.10181037e-03 ... -2.41714511e-02
     1.10743968e-02 -9.46434401e-03]
   ...
   [-6.32423908e-03  5.82818640e-03  1.71281490e-02 ...  5.22501580e-03
    -1.53311586e-03  1.74924592e-03]
   [ 5.40692359e-03 -2.13265931e-03 -5.66727389e-03 ...  5.82235539e-03
    -3.38164158e-03  1.60443727e-02]
   [ 2.30928231e-03  4.90533607e-03 -5.56949014e-03 ...  8.69407877e-03
    -2.04451811e-02 -4.16003913e-03]]]


 [[[ 4.67885332e-03 -8.36062804e-03  2.50068400e-03 ... -1.43089425e-02
    -2.25954558e-04 -7.69829331e-03]
   [-3.41196638e-03  4.32001567e-03 -1.53895020e-02 ...  1.00169489e-02
    -8.61636654e-04  3.57725751e-03]
   [-1.49076181e-02  6.11117110e-03  1.28590288e-02 ... -3.76680959e-03
    -1.52949374e-02 -3.91486753e-03]
   ...
   [ 4.57635103e-03  2.00891565e-03  8.11379682e-03 ... -1.70608182e-02
    -1.16450489e-02 -8.45961180e-03]
   [-1.61097664e-02  2.68247840e-03 -9.38984938e-03 ... -7.49108894e-03
    -1.91034824e-02 -1.15987537e-02]
   [ 1.16741331e-02  2.04614201e-03 -6.25120522e-03 ... -6.20835600e-03
    -1.04158027e-02 -6.09722454e-03]]

  [[ 2.77748820e-03  1.01639768e-02  4.53972351e-03 ... -1.52356913e-02
    -5.27727534e-04  1.20520741e-02]
   [-2.01893207e-02  2.04669964e-03  6.19559549e-03 ... -4.53606131e-04
     1.45216775e-03 -8.56326777e-04]
   [ 5.84779214e-03 -3.33986641e-03  1.64594129e-02 ...  1.08163450e-02
    -3.55909346e-03 -2.33053835e-03]
   ...
   [-1.36388105e-03  5.18144900e-03  8.42477288e-03 ...  2.57066684e-03
    -1.25647169e-02  3.54451803e-03]
   [-5.16836764e-03 -1.65098783e-04 -1.42727308e-02 ...  4.00272058e-03
     8.17593001e-03 -1.29435696e-02]
   [ 1.41238626e-02 -5.19568892e-03  1.65510960e-02 ...  1.09136058e-02
     1.77141968e-02 -1.05973296e-02]]

  [[ 9.17040184e-03 -3.24612670e-03  1.06812231e-02 ... -2.10792199e-02
    -3.34480149e-03  2.01301575e-02]
   [ 2.71122251e-03  2.10572639e-03 -6.94741542e-03 ... -1.93786044e-02
     3.27106519e-03  3.17437761e-03]
   [-5.74223883e-03 -1.11273266e-02  7.89559912e-03 ...  1.31309908e-02
     1.17497081e-02 -2.75696581e-03]
   ...
   [ 2.30112069e-04 -1.40749579e-02 -4.91247000e-03 ...  1.41355814e-03
    -1.22771831e-02 -5.96330594e-03]
   [-5.42108552e-04  7.70289451e-03  7.59133184e-03 ...  3.49712698e-03
    -3.21559981e-03 -3.47794441e-04]
   [-5.59180975e-03  1.06059480e-02 -8.88861468e-05 ...  1.54483516e-03
    -4.84307576e-03 -4.84592933e-03]]]]layer6/weights:0[[[[-6.27740100e-03  2.19392702e-02  3.96494800e-03 ...  1.37615148e-02
    -1.42981242e-02 -4.27030027e-03]
   [ 5.40037779e-03 -4.05329745e-03 -8.72608088e-03 ...  3.80541873e-03
     1.99791649e-03  9.92941018e-03]
   [-1.00527825e-02  4.48541425e-04  1.34350285e-02 ... -4.78514470e-03
    -9.69501957e-03  1.74279418e-02]
   ...
   [ 7.46974489e-03  3.49478005e-03  1.33342342e-02 ... -5.18679479e-03
     3.68786999e-03 -3.06047499e-02]
   [ 6.86893286e-03  9.22349375e-03  5.53446915e-03 ...  8.74752086e-03
    -7.67588429e-03  9.53405816e-03]
   [ 2.92663136e-03 -8.54610186e-03 -2.71057896e-03 ... -8.61044042e-03
    -6.85283309e-03  6.05268357e-03]]

  [[ 1.27226561e-02  1.31818897e-03 -1.06646214e-02 ...  4.95529594e-03
     4.21964040e-04 -4.41494305e-03]
   [-6.34603063e-03  7.42538041e-03 -2.23352369e-02 ...  5.39093185e-03
     2.13435702e-02 -4.54839040e-03]
   [-4.86931112e-03 -1.79701634e-02  2.90052779e-03 ... -1.65181479e-03
     2.71191332e-03  7.92205427e-03]
   ...
   [ 8.74171685e-03 -1.09237758e-03  4.25401842e-03 ... -7.53695378e-03
    -6.47068862e-03  1.69968593e-03]
   [ 2.32090391e-02 -3.35884909e-03  1.26853306e-03 ...  9.98980738e-03
    -1.11421654e-02 -2.27459054e-03]
   [ 1.29489563e-02  1.73794162e-02 -7.56892981e-03 ...  1.23082753e-03
    -7.52925361e-03  2.89934315e-03]]

  [[ 7.91148189e-03 -8.53212271e-03 -1.85643528e-02 ...  9.88536980e-03
     7.80407479e-03 -2.75097657e-02]
   [ 5.14844991e-03 -9.07351356e-03  6.52337307e-03 ...  1.72952972e-02
     1.27942832e-02 -2.31039687e-03]
   [-1.67972315e-02 -4.62254835e-03 -1.85290468e-03 ...  9.29334294e-03
     1.63294431e-02  1.60420232e-03]
   ...
   [-3.40415700e-03 -1.07044028e-03 -1.52095612e-02 ...  2.16955431e-02
    -1.29205799e-02 -1.03877410e-02]
   [-6.02537720e-03 -2.68751266e-03  5.09717781e-03 ...  1.07783526e-02
     9.55547113e-03 -6.60578581e-03]
   [ 4.14157473e-03  1.11239506e-02 -3.17733444e-04 ... -2.34880252e-03
     7.55690597e-03  1.19047565e-02]]]


 [[[ 1.68858524e-02 -2.36853398e-03  9.27891023e-03 ... -9.25255381e-03
    -1.82780679e-02 -8.20172427e-04]
   [-9.07474291e-03  2.75786594e-03 -5.21769561e-03 ...  2.87433714e-03
    -8.85281060e-03 -4.06030007e-03]
   [ 1.24693429e-02  7.99902342e-03  5.78940962e-04 ... -6.21923152e-03
     2.08752742e-03  1.23282066e-02]
   ...
   [-2.49585453e-02 -1.59542765e-02  3.82063887e-03 ...  3.67553253e-03
    -8.50087497e-03  1.86769702e-02]
   [ 7.43202306e-03  9.51214135e-03 -2.02926085e-03 ... -5.62305050e-03
     3.19126365e-03  2.17346079e-03]
   [-6.14546647e-04  3.56938853e-03 -6.84483116e-03 ...  1.52145943e-03
    -2.39770557e-03 -6.87093055e-03]]

  [[ 1.13276113e-02 -2.89892103e-03  9.02595930e-03 ... -1.75336599e-02
     7.15082604e-03 -1.06950430e-02]
   [ 8.51498824e-03  1.14398161e-02  4.86053847e-04 ... -2.02881219e-03
     1.02337506e-02 -6.34477613e-03]
   [ 2.74985679e-03 -6.15625922e-03 -7.15237344e-03 ...  1.37239299e-03
    -2.08047405e-02 -1.00028003e-02]
   ...
   [ 3.64188571e-03 -1.93357479e-03  5.61622018e-03 ...  2.08037607e-02
    -9.40301828e-03 -2.45394073e-02]
   [ 1.15471538e-02 -5.86387608e-03 -2.61962879e-03 ... -8.73969868e-03
     4.66408674e-03 -6.43192325e-05]
   [-1.03438448e-03  1.23915244e-02  1.96332075e-02 ... -2.85510300e-03
     1.44496094e-03  8.37118365e-03]]

  [[ 5.79131953e-03  2.99731619e-03 -5.22491569e-03 ...  9.11929831e-03
    -1.54034421e-03 -6.75919931e-04]
   [ 1.59157102e-03 -1.02961166e-02 -9.74637549e-03 ... -1.14173712e-02
    -2.94290134e-03 -2.26234887e-02]
   [ 5.60024055e-03  7.16206804e-03  1.70361868e-03 ...  6.65874314e-03
     7.75465462e-03 -9.47781932e-03]
   ...
   [ 1.79858319e-02  7.71503011e-03  1.32959438e-02 ...  1.08480977e-03
     2.14716308e-02  2.10738666e-02]
   [ 6.38912478e-03 -8.17234814e-03 -5.29693486e-03 ...  1.10944035e-02
     2.48919218e-03  3.45256925e-03]
   [ 5.84184797e-03  6.33248501e-03  7.71523686e-04 ...  5.68010379e-03
    -8.83232895e-03 -6.07619295e-03]]]


 [[[ 8.88176635e-03  4.66930494e-03  1.05330627e-02 ...  4.35817242e-03
    -4.02265415e-03 -1.39239095e-02]
   [-5.01829246e-03  1.16021410e-02 -4.05432098e-03 ... -1.94494724e-02
    -8.46435409e-03  1.15649886e-02]
   [-4.51270398e-03 -3.67866107e-03  8.64873081e-03 ... -9.17017274e-03
     1.15229208e-02  6.21543033e-03]
   ...
   [-1.96190760e-03 -2.45924736e-03 -5.10008493e-03 ... -1.56745631e-02
     2.09729094e-02 -3.51423118e-03]
   [-9.32381675e-03  2.86658183e-02 -6.76479982e-03 ... -4.67058457e-03
    -6.85070874e-03  2.52386648e-03]
   [ 3.69195407e-03  4.90639592e-03 -1.40150292e-02 ...  8.15819390e-03
    -1.32130161e-02  1.24744009e-02]]

  [[ 2.80655164e-04  1.22712683e-02 -7.20586069e-03 ... -1.15610287e-02
     6.37499010e-03 -1.03887124e-02]
   [ 2.69262004e-03  2.60507176e-03  1.05552166e-03 ... -2.44375342e-03
    -7.47752748e-03  1.66730806e-02]
   [ 3.69142322e-03  4.03922377e-03 -1.32750869e-02 ... -1.39047196e-02
    -5.40710520e-03 -1.04983132e-02]
   ...
   [ 8.22013430e-03  9.89574846e-03 -9.42323313e-05 ...  1.67756211e-02
     1.26912668e-02  1.26743258e-03]
   [ 5.10537857e-03  2.33989805e-02  1.56962418e-03 ... -9.96941468e-04
     4.45306796e-04 -1.15951523e-02]
   [ 6.43893285e-03  6.12839591e-03  4.36837459e-03 ... -2.49971803e-02
     8.55006464e-03  1.08402148e-02]]

  [[-3.02149309e-03 -3.27712763e-03 -3.74452793e-04 ... -8.56384356e-03
     9.92818363e-03 -6.50431076e-03]
   [ 1.15168318e-02 -1.34897954e-03  9.85836238e-03 ... -6.68997457e-03
     1.87329408e-02 -5.97521081e-04]
   [-5.34575107e-03 -7.11754023e-04 -1.00347735e-02 ... -3.14232893e-03
     1.41205743e-03 -1.03869904e-02]
   ...
   [-2.61452142e-03 -4.55182558e-03 -5.11456747e-03 ... -1.32496620e-03
    -8.02258495e-03  4.13403800e-03]
   [-2.40730401e-03 -6.33668387e-03 -2.37877760e-03 ...  6.06334023e-03
    -2.81037996e-03 -7.45933270e-03]
   [-3.31344153e-03 -1.78362485e-02  2.12671962e-02 ... -5.59972087e-03
     1.85285893e-03 -4.24587354e-03]]]]layer7/weights:0[[[[-9.14959144e-03 -5.38686104e-03  8.30400549e-03 ...  3.75554082e-03
     8.85983463e-03  7.20337359e-03]
   [-3.42498999e-03  3.70244699e-04 -1.76517316e-03 ...  1.48247695e-03
    -1.16049675e-02 -1.33021977e-05]
   [-6.97091338e-04 -1.71360304e-03 -5.89873455e-03 ... -6.87368307e-03
     1.01088751e-02 -2.55243517e-02]
   ...
   [ 3.51326214e-03 -1.24473302e-02  2.28970535e-02 ...  1.04136243e-02
     1.36120236e-02 -6.69388613e-03]
   [-1.19012009e-04  1.55367432e-02  3.57638113e-03 ...  1.22263539e-03
     1.38405263e-02 -3.93733615e-03]
   [-4.59337514e-03  9.21184570e-03 -5.46576222e-03 ...  6.55188051e-04
    -4.75977734e-03 -1.89324818e-03]]]]layer7/biases:0[ 5.44700924e-05  3.00444972e-05  1.20873403e-04  4.31550361e-05
  2.14482607e-05 -1.36593037e-04  3.60152103e-06 -7.29862859e-06
  2.55862669e-05  2.00516752e-05  1.51963948e-04  5.72086101e-05
 -7.70438419e-05  8.12793878e-05 -9.41056169e-06  2.08026704e-05
  1.25634415e-06 -6.68444773e-05  8.30992974e-07  6.40413855e-05
  1.35583308e-04 -4.27459345e-05 -9.11019961e-05  2.97885381e-05
  9.02194297e-05  3.03618503e-06 -5.28876189e-05  2.33169321e-05
  2.76675692e-05 -1.36767936e-04 -1.06518360e-06 -3.45432927e-05
 -2.23143866e-06 -2.79060487e-06  2.99661933e-05 -3.66229615e-05
  1.13028989e-04 -9.62754420e-05  2.10521976e-05 -1.07228203e-04
 -8.78553474e-05  8.56438637e-05 -1.50768446e-05  1.28155647e-04
 -1.13701062e-04 -5.44488394e-05 -1.34704778e-05  1.18489013e-04
  4.94569649e-05  3.16621226e-05  7.86113669e-05 -1.38711592e-04
  5.95989477e-05  3.18277707e-05  1.42977093e-04 -1.49588566e-04
 -3.15680409e-05 -3.41248997e-05 -7.86336295e-06 -2.78998959e-05
 -1.19739714e-04 -4.83233271e-05 -1.48229083e-05  1.47511973e-05
 -4.50547159e-05  2.30284732e-05 -2.72437046e-05  3.89680099e-05
  8.40733992e-05 -8.41235887e-05 -3.04794230e-05  4.44133802e-05
 -1.18801208e-05  7.74763321e-05 -9.27636283e-05 -3.41978108e-08
 -5.29974641e-05  1.93834730e-05  7.56376248e-05 -6.42636151e-05
  5.36452062e-05  5.45566945e-05 -2.87770636e-05 -3.12725824e-05
  2.97381594e-05  6.77693897e-05  1.71686712e-04  1.75986701e-04
  4.48302308e-05  4.32484958e-05 -5.43121678e-05 -2.89299787e-05
  6.80681042e-05 -3.86631255e-05  2.67152336e-06  5.14770982e-05
 -8.70094809e-05 -6.48109271e-05  3.43670581e-05 -4.38065326e-05
  1.65451747e-05 -6.48486384e-05 -9.39876827e-06 -3.85383173e-05
  2.27582332e-05  1.31837969e-05 -2.00676659e-05 -2.51414076e-05
 -8.39879795e-05 -3.14393765e-06 -3.80395104e-05 -3.15637226e-05
 -2.80959448e-05 -3.62773208e-05  5.69455151e-05 -1.18747294e-05
  1.83410419e-04 -6.60745136e-05  1.88327267e-05  8.94284676e-06
 -1.60170210e-04  1.03729959e-04 -4.85631354e-05  2.25861295e-05
 -2.15671735e-05  9.83993086e-05  2.89983873e-05  7.48119564e-05]layer8/weights:0[[[[ 6.68735057e-03  3.75901628e-03 -1.35291321e-03 ... -4.39865893e-04
    -1.00180123e-03 -1.18699186e-02]
   [ 5.80300484e-03 -8.04822333e-03  2.58405390e-03 ...  2.03529908e-03
    -7.77630601e-03 -6.44714199e-03]
   [ 1.54412130e-03 -2.89750379e-02 -1.74339453e-03 ... -1.06988624e-02
    -1.55160958e-02 -4.88626212e-03]
   ...
   [-2.33641686e-03 -3.65372887e-03  9.14540607e-03 ... -6.90465188e-03
     1.39886066e-02  1.36594037e-02]
   [ 5.49350865e-04 -7.14590354e-03  1.65599715e-02 ...  9.20127332e-03
     1.47252493e-02  4.78926348e-03]
   [-1.53981214e-02  5.52772824e-03  1.37158427e-02 ... -1.25380540e-02
     2.80429958e-03  8.21073726e-03]]

  [[ 1.27317326e-03  7.11370213e-03  8.81934445e-03 ... -4.30530589e-03
    -5.94014488e-03  1.63697135e-02]
   [ 3.32759344e-03 -1.53625179e-02 -1.02717225e-02 ...  2.52779247e-03
     2.13424060e-02 -7.87866022e-03]
   [ 3.42361047e-03 -5.58341201e-03  4.29958850e-03 ... -1.42725063e-02
     9.04903654e-03 -3.13448108e-04]
   ...
   [ 1.90540403e-02 -9.49988049e-03  1.37537094e-02 ...  3.90082458e-03
     1.78478491e-02 -1.34882266e-02]
   [-1.11202467e-02 -2.93323444e-03  9.18464363e-03 ...  1.11569772e-02
    -2.18198318e-02  9.62559693e-03]
   [-1.19873637e-03  2.17535850e-02 -5.60523942e-03 ...  6.87641837e-03
     1.16316937e-02 -1.17133474e-02]]

  [[ 1.55944913e-03  1.27570815e-02 -2.19349531e-04 ...  1.80196781e-02
    -4.10259049e-03 -9.33963805e-03]
   [-7.06539908e-03 -4.53041354e-03  1.00926841e-02 ...  8.39798618e-03
    -1.90223306e-02  5.63669298e-03]
   [-9.00373794e-03  4.76758974e-03 -5.56003349e-03 ... -1.42540811e-02
     2.48278142e-03 -1.01852138e-03]
   ...
   [ 1.36388128e-03  8.41370691e-03  1.96242705e-03 ...  1.23919584e-02
    -7.78792752e-03 -5.58370445e-03]
   [ 1.77248009e-02  9.91836563e-03 -1.10263703e-02 ... -2.45898776e-03
    -6.35766517e-03  9.01108980e-03]
   [ 6.34535588e-03  3.38011305e-03 -1.89512211e-03 ... -5.43020805e-03
    -2.39161169e-03  4.05016914e-03]]]


 [[[-1.08297763e-03 -1.08038345e-02  4.39209398e-03 ...  1.49045093e-03
     5.69787808e-04  1.06521845e-02]
   [ 6.35490054e-03 -1.74134374e-02 -2.04901155e-02 ... -6.25438616e-03
    -1.62897874e-02 -9.97769646e-03]
   [-2.51629576e-03 -3.75060504e-03  1.69470329e-02 ... -1.21395914e-02
     1.45133748e-03 -1.81198376e-03]
   ...
   [ 7.60425860e-03  1.44504728e-02 -9.18641104e-04 ...  1.46454582e-02
    -2.57422886e-04 -1.31341978e-03]
   [-1.21201733e-02 -2.38264631e-02  2.16360763e-02 ...  6.77328499e-04
    -5.21195179e-04 -4.19578096e-03]
   [-1.13668069e-02 -1.01501268e-04 -2.54425127e-02 ...  8.47614650e-03
     1.19232126e-02 -1.00150676e-02]]

  [[ 2.93951132e-03 -4.37208713e-04  1.77266318e-02 ... -1.22174257e-02
    -1.07436087e-02  3.61545430e-03]
   [ 3.87658190e-04 -9.47299693e-03  6.11347845e-03 ...  6.83277845e-04
     5.93810296e-03 -2.01247465e-02]
   [ 8.51240940e-03 -7.87585322e-03  8.87970498e-04 ...  4.14277660e-03
    -2.02013943e-02 -2.85567832e-03]
   ...
   [-3.22580640e-03  1.32896774e-03 -3.63005023e-03 ... -1.21928006e-02
    -8.71928409e-03 -5.92343835e-03]
   [-1.06031466e-02  5.29995305e-04  1.22356275e-02 ... -1.85936075e-02
    -7.51096522e-03  1.62992980e-02]
   [ 1.42725212e-02  1.52676320e-02 -5.94465481e-03 ... -4.80162166e-03
    -8.98073800e-03 -1.79339424e-02]]

  [[ 3.60941514e-03  1.42734862e-04  8.58909730e-03 ... -1.36755686e-02
     2.89022699e-02  1.24507621e-02]
   [-1.29048852e-02  7.87235238e-03  5.75041631e-04 ...  1.12250969e-02
    -2.88176839e-03 -1.22264484e-02]
   [ 8.03541392e-03  1.05216205e-02  2.91357096e-03 ...  1.27133336e-02
    -1.64564494e-02  1.41769983e-02]
   ...
   [ 9.66397673e-03 -2.78461585e-03  1.31502736e-03 ... -2.25542666e-04
    -1.12725729e-02  3.64656677e-03]
   [-8.48310161e-03 -5.86805167e-03  1.66390219e-03 ... -1.17482282e-02
     1.70015059e-02  2.22369260e-03]
   [ 1.29416613e-02  6.12807507e-03 -1.00256540e-02 ...  4.95752692e-03
    -1.24501286e-03 -1.63521450e-02]]]


 [[[ 4.88690159e-04  1.85024720e-02  4.56104521e-03 ... -1.68474521e-02
     2.95777014e-03  9.99159366e-03]
   [-3.95316019e-05 -1.24390994e-03  4.18191450e-03 ... -1.01688399e-03
    -4.72884951e-03 -8.95090401e-03]
   [-4.79328120e-03 -6.97594183e-03  4.61292500e-03 ... -2.08245758e-02
    -6.42630598e-03  9.52528603e-03]
   ...
   [ 1.81069179e-03  4.05776314e-03 -5.73493075e-04 ... -6.88231876e-03
     2.24907068e-03 -2.91219098e-03]
   [ 1.68998577e-02 -4.34745010e-03  1.60348136e-03 ... -6.81323977e-03
    -2.94558867e-03  1.19957598e-02]
   [-2.04685284e-03  1.76390875e-02 -1.13621298e-02 ... -8.42511188e-03
     1.40947644e-02  7.27580395e-03]]

  [[-2.12831218e-02  6.77541737e-03 -7.57526979e-03 ...  2.79047206e-04
    -7.54516665e-03 -7.15283072e-03]
   [ 6.69006305e-03 -1.69090589e-03 -3.33461980e-03 ...  7.15641398e-03
    -1.33526921e-02  2.69991532e-03]
   [ 1.36148287e-02 -1.93946064e-03 -1.15794027e-02 ...  3.66167841e-03
    -1.10275708e-02 -1.37896985e-02]
   ...
   [ 7.53960991e-03  3.63761233e-03  4.79309354e-03 ...  1.35453576e-02
     2.79530417e-03 -6.39834115e-03]
   [-5.31615151e-05  1.27582601e-03 -3.61826533e-04 ...  2.21632440e-02
     2.06704941e-02  2.53923424e-03]
   [-7.69968517e-03 -8.80978722e-03 -1.09249633e-02 ... -5.96716302e-03
    -3.93745629e-03 -1.64264552e-02]]

  [[-7.83871021e-03 -3.95499264e-05  4.01429785e-03 ...  7.48138316e-03
     2.56328378e-03 -4.63669596e-04]
   [-5.82658872e-03  3.06608831e-03  1.14803510e-02 ...  2.73627602e-03
    -2.36955006e-03 -4.05440433e-03]
   [ 8.22477508e-03  2.18705484e-03 -8.63800012e-03 ... -8.19544424e-04
     3.58556351e-03  1.18741556e-03]
   ...
   [-1.13840392e-02  3.98440519e-03 -6.59832265e-03 ...  9.76603013e-03
    -5.03704697e-03  7.32905837e-03]
   [-4.76661930e-03 -1.74903926e-02  9.72384587e-04 ...  1.25557752e-02
     4.14129673e-03  6.47327676e-03]
   [ 6.96401868e-04 -5.29881241e-03  3.85221723e-03 ... -5.50469058e-03
    -1.52266473e-02  1.25951925e-02]]]]layer9/weights:0[[[[ 6.37714751e-03  2.98248744e-03  1.20502040e-02 ...  1.48537960e-02
    -8.32332671e-03 -1.76116470e-02]
   [-1.44048361e-02  1.13014691e-03 -6.56757562e-04 ...  8.67300015e-03
     1.50096940e-03 -1.33537557e-02]
   [-1.41121550e-02  1.73125565e-02 -3.07460141e-04 ...  2.52413610e-03
     4.53596469e-03  5.76627487e-03]
   ...
   [-1.38982283e-02  1.62130948e-02 -1.77620612e-02 ...  2.42097806e-02
    -4.15417220e-04 -1.44163414e-03]
   [-1.38101354e-02 -1.59948822e-02  2.36268565e-02 ...  3.96559061e-03
    -6.69723959e-04 -5.00315707e-03]
   [ 1.46199912e-02 -9.75708105e-03 -7.92723801e-03 ... -7.88614154e-03
    -2.75842991e-04  6.71912963e-03]]

  [[ 1.14553748e-03  1.45384278e-02  1.56595260e-02 ... -5.16771339e-03
     1.36998743e-02  4.21508215e-03]
   [-1.21373069e-02 -1.43388915e-03 -4.01146477e-03 ...  8.95782188e-03
    -3.86208855e-03 -4.47275070e-03]
   [ 1.30984308e-02  8.85966606e-03 -9.11575090e-03 ...  1.55264360e-03
     8.90400168e-03 -8.64755455e-03]
   ...
   [-1.30451913e-03 -1.98145653e-03 -1.49596557e-02 ... -1.57466196e-02
     1.30577888e-02 -1.62298640e-03]
   [ 5.78627409e-03  8.37575702e-04  4.36285185e-03 ... -8.93440749e-03
     3.14245629e-03 -1.27936145e-02]
   [-1.48270037e-02 -5.55462064e-03 -1.18994375e-03 ... -7.63060758e-03
    -1.18257869e-02 -2.42463849e-03]]

  [[-3.27706267e-03  1.33491503e-02  1.05848508e-02 ... -8.61387607e-03
     4.26030578e-03  1.10733276e-02]
   [ 1.41208535e-02 -1.73119921e-02 -2.82332697e-03 ... -2.95877308e-02
     8.54271092e-03  2.16380488e-02]
   [-1.53376795e-02  1.24685233e-02 -2.09678393e-02 ...  9.23179541e-05
     1.80341788e-02 -1.28619876e-02]
   ...
   [ 6.11907709e-03 -1.03792353e-02 -1.49832871e-02 ... -1.02779660e-02
     1.08747836e-02 -4.76706820e-03]
   [-8.15678388e-03  1.76587161e-02  5.11996727e-03 ...  1.90291833e-02
    -1.50106056e-02 -1.08612971e-02]
   [-1.91233326e-02 -2.38026003e-03  1.89851900e-03 ...  2.39926321e-03
     1.53792743e-02  5.98871522e-03]]]


 [[[ 3.98251647e-03 -2.58731879e-02 -1.01566864e-02 ...  3.57910176e-03
    -3.02647590e-03  8.94062500e-03]
   [ 1.07841450e-03  5.36014093e-03 -7.36300834e-03 ... -1.23688986e-03
     5.41129382e-03 -4.85919137e-03]
   [ 3.48721282e-03  1.33885546e-02 -3.24705360e-03 ... -1.11524453e-02
    -1.10814869e-02  1.02368882e-02]
   ...
   [ 4.26906487e-03 -2.27576541e-03  7.69911474e-03 ... -1.48029765e-02
     1.71848820e-04  7.10409507e-03]
   [-9.03915847e-04 -1.03712908e-03 -1.46767022e-02 ...  1.25444611e-03
     1.48784723e-02  1.62129477e-02]
   [ 6.36314647e-03 -1.12884622e-02 -2.22516875e-03 ...  1.55231040e-02
    -3.86277540e-03  1.17039774e-02]]

  [[ 1.10059474e-02  1.06705856e-02  7.75978668e-03 ...  1.42126082e-04
     7.51789799e-03 -9.17381607e-03]
   [-1.12303682e-02 -9.83344857e-03  6.27553230e-03 ... -2.13488992e-02
     7.24502024e-04  5.74110541e-04]
   [ 1.10514797e-02 -5.14986692e-03  1.77469570e-02 ... -1.12298876e-03
    -2.12648809e-02  1.17229708e-02]
   ...
   [ 1.25373621e-02 -1.45762302e-02  1.08777592e-02 ... -5.76027157e-03
     5.67869609e-03  1.69797230e-03]
   [ 7.09518604e-03 -4.87402361e-03 -5.39235480e-04 ...  9.93865891e-04
    -1.12825222e-02 -5.97827416e-03]
   [ 5.65498229e-03 -1.81410778e-02  4.56192018e-03 ...  1.57619584e-02
    -7.79375760e-03  2.79804226e-04]]

  [[ 1.86003763e-02  5.04247425e-03  7.79255480e-03 ...  5.72387921e-03
     3.56890471e-03 -4.70198551e-03]
   [ 1.89919013e-03  1.41466763e-02  3.66523163e-03 ... -6.66496810e-03
     2.49003409e-04 -7.12062931e-04]
   [ 8.68143886e-03  2.54438445e-03 -9.42786597e-03 ...  8.75705155e-04
    -1.72876532e-03  9.74423531e-03]
   ...
   [ 1.75448600e-03 -7.37586385e-03 -3.00010061e-03 ... -2.50599487e-03
     1.00637386e-02 -5.73613541e-03]
   [ 1.41103724e-02 -2.07927860e-02 -3.07015935e-03 ...  1.14227133e-02
     1.70824572e-03 -1.33740995e-02]
   [ 3.46335326e-03 -2.11904626e-02  1.05758188e-02 ...  2.81460001e-03
    -9.70814098e-03  3.61320376e-03]]]


 [[[-1.26952305e-02 -2.94823578e-04  1.73373136e-03 ...  7.62012647e-03
    -6.05119253e-03  6.86413096e-03]
   [-1.91869249e-03 -1.36885140e-02  1.33284433e-02 ...  5.12695219e-03
     2.43081199e-03 -2.38006865e-03]
   [ 6.79314369e-03  1.62815154e-02 -6.21601194e-03 ...  2.78982800e-03
     1.79604875e-04  7.32083013e-03]
   ...
   [ 1.22113945e-02  9.99503303e-03  7.88135547e-03 ... -5.10351732e-03
    -1.71423852e-02 -9.02127195e-03]
   [-1.12269437e-02 -1.68141280e-03  1.50994277e-02 ... -1.15659228e-02
     6.01645967e-04 -8.29089805e-03]
   [ 8.51360150e-03 -6.75477460e-03  6.55790744e-03 ...  1.20788915e-02
    -3.19313374e-03  8.49447586e-03]]

  [[ 7.79813435e-03  9.64305829e-03  8.34128633e-03 ...  4.20690328e-03
     9.36132576e-03 -8.89211521e-03]
   [-3.06496606e-03  1.23005603e-02 -2.45836005e-03 ...  1.27814393e-02
    -4.98246402e-04 -1.18079241e-02]
   [ 2.72217784e-02 -1.31378078e-03  1.27908085e-02 ...  1.67675223e-03
    -6.28820760e-03  1.15686608e-03]
   ...
   [-9.54861287e-03 -1.10038333e-02  1.78134330e-02 ... -3.45950527e-03
     5.53616788e-03 -4.92354343e-03]
   [ 1.17794005e-02 -1.58627871e-02  2.05554795e-02 ...  1.72583200e-02
     2.87062824e-02  1.26646541e-03]
   [ 1.71691477e-02  1.43281755e-03  9.95670166e-03 ...  1.00077074e-02
     1.52370902e-02 -2.79913394e-04]]

  [[ 2.29150057e-03  1.16125224e-02  4.56103869e-03 ...  2.60796794e-03
     2.76713097e-03  1.12886801e-02]
   [-2.11774069e-03  2.39175884e-03  3.68803437e-03 ... -1.48729179e-02
     4.76644607e-03  2.74439342e-03]
   [-5.47350571e-03 -1.30428374e-02  5.25850011e-03 ...  1.23633528e-02
     2.54693534e-03 -1.20408088e-02]
   ...
   [-1.89874396e-02 -6.83733495e-03 -1.48390494e-02 ... -6.66473107e-03
     2.24714982e-03 -9.12158191e-03]
   [-5.43627143e-03 -1.36110780e-03 -4.09339741e-03 ...  1.74302496e-02
    -1.15447678e-02 -1.66894030e-02]
   [ 1.22766932e-02 -8.58207978e-03 -1.32763227e-02 ...  1.47907166e-02
    -4.64609172e-03 -3.50867445e-03]]]]layer10/weights:0[[[[ 1.58964582e-02 -6.34413585e-03  1.11010345e-02 ... -1.30824689e-02
    -8.09442811e-03 -9.48474649e-03]
   [-7.55773392e-03 -5.83792571e-04  2.27175024e-03 ...  1.45878457e-02
    -1.10182967e-02  9.15096607e-03]
   [-1.05194468e-03  9.45942290e-03 -6.10153563e-03 ... -1.00252731e-02
     8.82754568e-03 -1.35300066e-02]
   ...
   [-2.24319771e-02  1.11517431e-02  5.86942257e-03 ...  1.09658903e-02
     3.52975191e-03  3.55571462e-03]
   [-2.04301160e-02  7.72808259e-03  1.40635306e-02 ...  1.48035334e-02
    -1.77307229e-03 -7.32679758e-03]
   [ 7.07777636e-03 -4.21935786e-03  2.24929136e-05 ...  2.01710826e-03
    -5.61276497e-03 -5.25471196e-03]]]]layer11/weights:0[[[[-1.45732276e-02  2.43125018e-03  2.32953159e-03 ...  1.01413038e-02
    -1.09619163e-02 -7.09086750e-03]
   [ 5.88231348e-03  3.66150937e-03  1.07989842e-02 ... -6.97450573e-03
    -8.18935223e-03 -9.11471155e-03]
   [ 2.55985465e-03  1.02898842e-02 -6.99057302e-04 ...  3.74903000e-04
     1.75320613e-03 -1.21014258e-02]
   ...
   [-1.44276244e-03 -7.88217003e-04  4.12274199e-03 ...  2.81207748e-02
     8.94491095e-03 -4.44909930e-03]
   [-1.92615262e-03 -1.44022517e-02  4.99030109e-03 ... -2.37986483e-02
     1.80434063e-02 -1.90005302e-02]
   [ 7.19900336e-03  2.33164076e-02  3.54182528e-04 ...  7.27885356e-03
     2.57142889e-03  5.54867904e-04]]

  [[ 1.19344797e-02 -9.92537010e-03 -7.71873072e-03 ... -9.97256488e-03
    -4.97872662e-03  1.09863747e-02]
   [ 4.04468365e-03 -1.33130169e-02  1.83239281e-02 ...  1.59700564e-03
     2.32668081e-03  2.36092857e-03]
   [-5.28045418e-03  9.57692415e-03 -1.60196181e-02 ...  4.00146982e-03
     7.84585625e-03  2.59389747e-02]
   ...
   [-1.50995489e-04 -1.38774971e-02  1.88954342e-02 ... -1.24120945e-02
     8.46013427e-03 -1.43031422e-02]
   [ 3.60815646e-03 -1.25756226e-02 -4.24707570e-04 ... -4.18802351e-03
    -9.04416945e-03  3.43876611e-03]
   [ 1.53968154e-04 -1.09547367e-02 -1.12309800e-02 ... -1.56498549e-03
    -7.83043541e-03  5.32895653e-03]]

  [[ 3.32669495e-03 -1.59390010e-02  4.36584558e-03 ...  1.11574586e-02
     8.14656820e-03  4.78543062e-03]
   [ 9.88863502e-03  1.43619068e-02  9.50649660e-03 ...  8.05826951e-03
    -9.70982667e-03 -1.11777661e-02]
   [-3.07240942e-03 -2.15685144e-02 -1.27872336e-03 ...  1.19737182e-02
     6.16163108e-03 -2.59241299e-03]
   ...
   [-2.15391722e-02  7.19953654e-03 -7.32664717e-03 ...  5.51863061e-03
     1.52448490e-02 -7.63544347e-03]
   [-1.24122109e-02 -6.41387771e-04 -2.30107978e-02 ...  1.50473639e-02
    -4.14637296e-04  8.60337059e-06]
   [ 2.95576896e-03  7.57926097e-03 -5.13236318e-03 ... -1.76696591e-02
    -7.37672579e-03 -1.16180601e-02]]]


 [[[ 1.11713894e-02 -1.93049014e-02 -1.11995684e-02 ...  2.50968640e-03
    -6.14906009e-03 -7.03384774e-03]
   [-6.15805993e-03 -1.15613779e-02  3.73522681e-03 ...  7.01800128e-03
     2.56249844e-03  9.86640994e-03]
   [ 5.19881782e-04  2.02225819e-02 -8.73461273e-03 ...  6.89826382e-04
    -2.42409166e-02  3.22675623e-04]
   ...
   [ 1.17249060e-02 -1.39249591e-02 -7.93451816e-03 ... -5.80256805e-03
    -5.19913016e-03 -3.06508481e-03]
   [-4.34630318e-03  1.37124406e-02 -5.93321398e-03 ... -3.21578397e-03
     7.48973526e-03  5.35545172e-03]
   [ 1.61035694e-02 -6.16951892e-03 -4.07661172e-03 ... -4.26824577e-03
    -9.33342334e-03 -1.45821110e-03]]

  [[-7.51618855e-03 -1.65520366e-02  5.40107209e-03 ...  1.82404146e-02
     4.14648512e-03  1.00181333e-03]
   [-3.01470584e-03 -1.41839916e-03  6.49427436e-03 ... -1.46699080e-04
    -1.78510677e-02  3.78399226e-03]
   [ 1.23916799e-02  1.87096298e-02 -1.07628107e-02 ...  1.07405586e-02
     3.52716120e-03  1.36799901e-03]
   ...
   [ 3.41394986e-03 -1.71197318e-02 -1.61432475e-02 ...  9.44238249e-03
     3.63430893e-03 -1.55404117e-02]
   [-2.48938566e-03  7.43282074e-03 -1.23705203e-02 ...  1.12474049e-02
     1.07370373e-02  1.28483018e-02]
   [-1.34205110e-02  4.33785561e-03 -2.87985546e-03 ...  5.54198166e-03
     3.70909064e-03 -1.08706101e-03]]

  [[ 3.02441744e-03 -2.39354521e-02 -3.50335380e-03 ... -1.06285950e-02
    -5.08839776e-06  1.24647911e-03]
   [ 9.89306718e-03 -1.41983507e-02  1.47072747e-02 ...  1.25240046e-03
    -4.71980264e-03 -1.92732997e-02]
   [ 5.00718877e-03  1.90654770e-02  1.09306863e-03 ... -1.53513136e-03
    -1.62862092e-02 -1.30079910e-02]
   ...
   [ 1.23953354e-03 -6.94807107e-03 -3.32683627e-03 ... -5.50915580e-03
     5.23434486e-03 -3.16774636e-03]
   [ 1.04705347e-02 -2.10987614e-03  2.78204493e-03 ... -1.14739118e-02
    -6.69960491e-03  1.05130309e-02]
   [ 8.43225326e-03 -2.51738634e-02  1.77911371e-02 ...  4.64250520e-03
     6.30096346e-03 -8.50855559e-03]]]


 [[[ 1.04256934e-02  3.19605321e-03  7.68105872e-03 ... -8.46056826e-03
    -6.94531482e-03  5.38761821e-03]
   [-1.09227877e-02  5.89112798e-03  1.03057558e-02 ...  5.25218714e-03
    -2.51029269e-03  1.67298280e-02]
   [ 7.69802323e-03 -2.83777161e-04 -2.66076648e-04 ... -2.62704736e-04
    -1.44330012e-02  2.25568507e-02]
   ...
   [-9.86952614e-03 -1.18294533e-03  5.92753990e-03 ...  3.55191180e-03
     7.69543182e-03  7.55615020e-03]
   [-1.55957490e-02  1.60644520e-02 -1.82959214e-02 ...  7.91868847e-03
     8.23606923e-03 -5.87118091e-03]
   [ 3.10241012e-03  7.62278214e-03 -7.82454759e-03 ...  4.91631264e-03
    -5.38571505e-03 -8.23119935e-03]]

  [[-5.68266958e-03  4.89667943e-03  1.10819098e-03 ... -4.51643486e-03
     3.34448996e-03 -6.04300410e-04]
   [ 8.24162550e-03 -1.46737089e-02  1.25194127e-02 ... -1.24418549e-02
    -1.98523793e-03  1.06431004e-02]
   [ 4.72460361e-03 -1.27972076e-02 -5.07619651e-03 ... -8.78961012e-03
    -1.29440967e-02 -8.74927361e-03]
   ...
   [ 1.13662770e-02 -1.58241321e-03 -5.56860631e-03 ...  1.24369264e-02
    -2.48470926e-04 -4.50153975e-03]
   [-1.94045734e-02  2.09111124e-02 -9.93619324e-04 ...  4.33471892e-03
     4.46111616e-03  2.29160897e-02]
   [ 1.15879357e-03  1.24362670e-03  1.90174505e-02 ... -1.16797239e-02
    -2.01962003e-03  1.88447360e-03]]

  [[-1.13583626e-02 -4.98716068e-03  3.68668651e-03 ... -6.52475236e-03
    -9.41690709e-03  3.45850736e-03]
   [ 5.49692055e-03  1.12928962e-02 -6.69668242e-03 ... -8.30585882e-03
     4.89297090e-03  1.47056412e-02]
   [ 1.25863329e-02 -3.34148854e-03 -5.84050640e-03 ... -8.08311068e-03
     3.43485130e-03 -7.53973192e-03]
   ...
   [-3.36660724e-03 -1.25467323e-03 -1.17515512e-04 ...  3.39834066e-03
    -1.52583728e-02 -4.07490740e-03]
   [-4.76977369e-03  6.85444893e-03 -8.52177478e-03 ... -5.76791028e-03
     1.62920505e-02  2.31109187e-02]
   [ 3.20173893e-03  9.61223338e-03 -6.96728611e-03 ...  1.61585938e-02
    -4.17902411e-05 -4.89859423e-03]]]]layer12/weights:0[[[[ 0.00466342 -0.00351223  0.00818388 ... -0.0005641  -0.00683084
     0.0036293 ]
   [-0.02129845 -0.00152918 -0.00353657 ... -0.00418066 -0.00237967
    -0.00032214]
   [-0.01583699  0.00405446 -0.01806481 ... -0.00695301  0.00856662
    -0.00174696]
   ...
   [-0.00360534 -0.00457373 -0.01084392 ...  0.03580251 -0.00109411
     0.00025864]
   [ 0.00650146 -0.00434749  0.00316735 ...  0.00562763 -0.0022832
     0.01085361]
   [-0.0032403   0.01649358  0.00078366 ... -0.01854429 -0.00067744
     0.00455979]]]]layer13/weights:0[[[[ 0.01539063 -0.0048487  -0.00303562 ... -0.00303898 -0.0022492
    -0.01358068]
   [ 0.0084061   0.01935582  0.00065037 ... -0.01397376 -0.02355802
     0.00127713]
   [-0.00368833  0.02048647 -0.00560304 ... -0.00856874 -0.00262349
     0.02220374]
   ...
   [ 0.0128135  -0.01460803  0.00023646 ...  0.00051716  0.00263715
    -0.00287113]
   [-0.0187285  -0.01341155  0.00389137 ...  0.01086103  0.00200458
     0.006497  ]
   [-0.02365696 -0.00508982 -0.00165254 ... -0.00260553  0.00141291
    -0.00456564]]

  [[ 0.01424553  0.00087317  0.00417365 ... -0.01002187 -0.00418135
    -0.01324175]
   [ 0.0016044  -0.02146632 -0.0010477  ...  0.01121472 -0.00915446
     0.00555172]
   [ 0.00127857 -0.02419289  0.00125627 ... -0.00627587  0.00408921
     0.00685725]
   ...
   [ 0.00378298 -0.00892607  0.00080047 ...  0.00333336 -0.00677068
     0.00044287]
   [ 0.01932641 -0.01057626  0.00379493 ...  0.01654872 -0.01775621
    -0.01986326]
   [-0.00549744 -0.00821308 -0.00298769 ... -0.00220582  0.00118373
     0.00952966]]

  [[-0.01554125 -0.00849439 -0.01193698 ...  0.00262435  0.00550866
    -0.00866131]
   [-0.00173911  0.00011529 -0.00921019 ...  0.00405334  0.00713747
    -0.00439794]
   [-0.01000102 -0.00547713 -0.01697204 ... -0.00082618 -0.00279329
     0.00958876]
   ...
   [ 0.00794791  0.00460581  0.01045367 ... -0.00141139 -0.00157953
    -0.00600372]
   [-0.01230708 -0.00500646  0.01892947 ... -0.00010321 -0.00247244
     0.00231303]
   [ 0.01488838  0.00685736 -0.00680458 ... -0.00695971  0.00141417
     0.00536962]]]


 [[[-0.01346305 -0.02229693 -0.00877238 ...  0.00910067  0.00871817
    -0.00489078]
   [ 0.00548094 -0.02224393  0.00273413 ...  0.0144925   0.00059017
    -0.01212171]
   [ 0.00094684  0.01881351 -0.00630959 ... -0.01593446 -0.00668214
     0.00730252]
   ...
   [-0.00744189  0.00863645  0.00604467 ... -0.01368717  0.00189283
    -0.01550178]
   [-0.00283522 -0.01543062  0.00623918 ...  0.00084187  0.00153744
     0.00487539]
   [-0.00638791 -0.00674266 -0.02824987 ...  0.01490464  0.0066368
     0.00453677]]

  [[ 0.00343443 -0.01248849  0.0051723  ... -0.00738463  0.00494283
     0.01300549]
   [ 0.00490183 -0.00553144 -0.00659807 ... -0.00745504 -0.00581159
    -0.00471926]
   [-0.02305201  0.00060567 -0.00134649 ... -0.00715871 -0.00199629
    -0.00116383]
   ...
   [-0.00555376 -0.01186831  0.00211829 ...  0.01541957  0.00058985
     0.00018333]
   [ 0.0012172  -0.00800687 -0.00580328 ...  0.0088456  -0.00756568
     0.00586638]
   [-0.00854732  0.00454924  0.00347764 ... -0.00716161  0.00432149
    -0.00705351]]

  [[-0.01445011 -0.01284018 -0.00937175 ...  0.01651956  0.01290646
    -0.0213142 ]
   [-0.00337867 -0.00952456 -0.01100344 ...  0.00323624  0.00791013
     0.0288564 ]
   [ 0.02414239  0.00067574 -0.00581873 ... -0.00849931 -0.01183297
     0.0039364 ]
   ...
   [-0.00017949 -0.00464905  0.02352004 ... -0.008625   -0.00585979
     0.01244164]
   [-0.00946823  0.00050887  0.01659583 ...  0.0061963  -0.01020625
    -0.00784399]
   [-0.0015964   0.00586231  0.00730969 ... -0.00793758  0.00871434
     0.00488309]]]


 [[[ 0.01567816  0.00423691  0.00153214 ...  0.00319998 -0.00901566
    -0.00778388]
   [-0.01194492 -0.01042395  0.00593574 ... -0.01270426  0.016045
    -0.00656694]
   [ 0.00175423 -0.00239395 -0.00336135 ... -0.0100799  -0.00424259
    -0.00933969]
   ...
   [ 0.00429651 -0.00515527 -0.00293252 ... -0.01495425 -0.00807739
     0.00355993]
   [ 0.00242644 -0.01228249  0.00296814 ... -0.01555118 -0.01137485
     0.00617946]
   [-0.00111123 -0.00632529 -0.00163845 ... -0.0133174   0.00363402
    -0.00642618]]

  [[ 0.01155197  0.00115608 -0.01154816 ...  0.00327017 -0.00656984
     0.00929749]
   [-0.01057344  0.00973514 -0.007313   ... -0.00456664 -0.00961999
    -0.01104417]
   [-0.00522761 -0.00337303 -0.01771384 ...  0.02072086 -0.00951204
    -0.00813081]
   ...
   [-0.01499875  0.00030478  0.00856272 ... -0.00115819  0.00116203
    -0.0088753 ]
   [-0.00187198  0.00017416 -0.00489216 ...  0.00816233 -0.00260732
     0.00521283]
   [-0.01484846  0.00447204 -0.00617797 ... -0.00831958 -0.00172715
    -0.00966618]]

  [[ 0.00277041  0.00943849  0.01599429 ...  0.00651752 -0.00839341
     0.0050206 ]
   [ 0.0148172  -0.00084389 -0.00958318 ...  0.02157208 -0.02449881
     0.00274083]
   [ 0.0069087  -0.02076236 -0.00015882 ...  0.01886813 -0.00548668
     0.01461047]
   ...
   [-0.02061571  0.00698094 -0.00811594 ...  0.0006709   0.0027902
    -0.00331732]
   [-0.01887278 -0.02030878  0.0069029  ... -0.00386862 -0.01267653
    -0.01862081]
   [ 0.01706893  0.0038599   0.01046785 ... -0.02030779  0.01104623
     0.00406993]]]]layer14/weights:0[[[[ 1.79164112e-02 -1.96968690e-02  1.96118355e-02 ...  1.17261438e-02
    -1.12788228e-03  1.85283795e-02]
   [-7.49488315e-03 -7.97083974e-03  5.81862824e-03 ...  3.11129377e-03
     5.72143449e-03 -1.73596609e-02]
   [ 8.06303160e-06 -1.03104096e-02  1.25243166e-03 ...  2.31494009e-03
    -1.74608007e-02 -1.64428409e-02]
   ...
   [-9.61804297e-03  8.31207540e-03 -5.42030437e-03 ... -3.39248078e-03
    -3.24355648e-03  4.15767980e-04]
   [-1.27083585e-02  2.21137004e-03 -1.29675237e-03 ...  1.16093515e-03
     1.72987115e-02  9.10665561e-03]
   [ 3.13956034e-03 -7.05322111e-03 -4.53105988e-03 ...  1.11577790e-02
    -1.30812721e-02 -1.78356306e-03]]

  [[-5.29261270e-05  1.68141592e-02 -2.04641093e-02 ... -9.50907264e-03
    -3.78243654e-04 -1.55405086e-02]
   [ 1.71487406e-02 -2.20606122e-02 -4.53040330e-03 ...  8.84785876e-03
     3.37957242e-03 -9.41792678e-04]
   [-1.50167067e-02  1.35963475e-02  6.13098731e-03 ... -9.45688167e-04
     1.00700809e-02 -1.01268552e-02]
   ...
   [ 1.76270250e-02  1.27003388e-02  7.56780431e-03 ...  1.39503079e-02
    -1.35987476e-02  2.82784505e-03]
   [-5.42083988e-03 -8.19319207e-03 -5.07227203e-04 ...  4.74295870e-04
     8.32809694e-03 -6.98064221e-03]
   [-4.26275050e-03  2.88475625e-04 -1.29440902e-02 ... -9.45712626e-03
    -7.44449790e-04  4.05018032e-03]]

  [[-5.90850739e-03 -6.44027459e-05  2.15065237e-02 ... -1.77659187e-02
    -8.14532954e-03 -2.76003557e-04]
   [ 7.00203609e-03 -9.91158374e-03 -1.34520116e-03 ... -2.06534490e-02
    -8.40901490e-03 -1.41600100e-03]
   [ 1.35120302e-02 -1.32981930e-02  4.26175678e-03 ... -1.66909816e-03
     4.36365046e-03  9.88122728e-03]
   ...
   [-4.48613428e-03 -1.96160516e-03 -8.86552781e-03 ... -2.69171223e-03
     5.33990888e-03 -1.87207889e-02]
   [-2.03488441e-03  4.38372663e-04  4.69259545e-03 ... -2.62548961e-03
    -1.17468378e-02 -7.07906764e-03]
   [-1.19035384e-02 -1.59572356e-03 -4.40284470e-03 ... -2.54212134e-03
    -1.32488506e-02  1.97884068e-02]]]


 [[[ 7.53810117e-03 -9.30956379e-03  2.36959662e-03 ...  2.27804054e-02
     1.88820157e-02  1.22003527e-02]
   [ 8.24941136e-03 -1.28949992e-04 -4.10286989e-03 ... -1.36135845e-02
    -2.57751858e-03 -1.41547918e-02]
   [ 6.27970137e-03 -9.00086481e-04  7.80467922e-03 ...  2.07238481e-03
    -1.35460626e-02  1.07616344e-02]
   ...
   [ 3.17457970e-03  2.86049442e-03 -1.73555296e-02 ...  4.93091531e-03
     1.15493918e-02 -7.09069660e-03]
   [-3.81334219e-03 -1.43166361e-02 -8.20987951e-03 ... -6.97607268e-03
    -1.99767947e-02  3.14691402e-02]
   [ 4.32259403e-03 -1.19601293e-02 -1.92382224e-02 ...  3.19685577e-03
    -3.58731579e-03 -8.83393642e-03]]

  [[-4.87112999e-03  2.01077573e-02 -6.72097609e-04 ... -1.11854244e-02
     1.11515224e-02  2.45162435e-02]
   [-9.20949690e-03  3.96558084e-03  5.95160853e-03 ... -3.12897435e-04
     7.28264637e-03 -1.74717989e-03]
   [-1.85533669e-02 -1.53230934e-03  5.59577951e-03 ...  1.05901659e-02
     7.11803092e-03  8.41958541e-03]
   ...
   [-1.89821050e-02 -2.46796617e-03  6.63982518e-03 ... -7.03902030e-03
    -5.83941524e-04  6.22514309e-03]
   [ 1.34739997e-02  2.89060455e-03 -2.17278808e-04 ... -2.08428912e-02
    -5.42968512e-03 -3.07290538e-05]
   [ 4.41165967e-03  1.86188403e-03 -1.01393387e-02 ...  4.34383191e-03
    -1.94177474e-03  1.86757725e-02]]

  [[-1.00709712e-02 -8.66354723e-03 -2.33844388e-03 ...  1.50977420e-02
    -4.33700206e-03  8.53637885e-03]
   [-5.01068728e-03 -6.46991562e-03 -2.14787014e-02 ... -3.65779735e-03
    -1.95789500e-03  2.01512258e-02]
   [-1.07010687e-02  1.68087333e-02 -3.31709022e-03 ...  4.16552136e-03
     1.30025065e-03  3.39676999e-03]
   ...
   [ 1.44397207e-02 -5.17055346e-03 -5.98139735e-03 ...  1.12635428e-02
     9.87880025e-03 -1.59852672e-02]
   [ 9.46136285e-03 -7.38677941e-03  1.64086968e-02 ... -9.27196257e-03
     7.82109890e-03  1.62093770e-02]
   [-1.01821525e-02  5.00556640e-03  2.94677215e-03 ...  2.05856608e-03
     5.25439298e-03  1.62908528e-02]]]


 [[[-3.75819916e-04 -6.71506627e-03 -5.41816186e-03 ... -1.63216167e-03
    -6.30533369e-03  1.90300914e-03]
   [ 1.73665280e-03  1.20756112e-03  3.22079239e-03 ... -7.02692661e-03
    -3.18358373e-03  2.11164728e-02]
   [-3.60545539e-03  1.51547845e-02 -1.13397399e-02 ...  1.18013937e-02
    -1.29850870e-02 -1.24632157e-02]
   ...
   [-1.12459930e-02 -1.25229629e-02 -6.93396782e-04 ...  3.07497306e-04
    -1.00300685e-02  1.27130626e-02]
   [ 6.07860740e-04  6.33352948e-03 -1.41141489e-02 ...  1.36099327e-02
    -9.79977380e-03 -8.36944021e-03]
   [-1.13125355e-03 -7.90565647e-03 -1.58836041e-02 ...  1.30212018e-02
    -1.21461897e-04  6.23641908e-03]]

  [[-1.81148369e-02  4.49584983e-03 -6.57808082e-03 ... -6.28476217e-03
    -6.29056105e-03 -1.18463393e-02]
   [-7.78074469e-03  1.05046881e-02 -8.52765236e-03 ...  2.56084721e-04
     1.42053673e-02  8.42620712e-03]
   [-1.83127709e-02  5.49245486e-03 -5.00733173e-03 ...  1.31803961e-03
     6.34842843e-04 -2.74666818e-04]
   ...
   [-9.81471268e-04 -1.26749752e-02 -8.80900118e-03 ...  1.46096628e-02
    -1.35699715e-02  5.09439269e-03]
   [ 1.93542875e-02 -5.50877955e-03 -4.46858723e-03 ... -2.53552594e-03
     1.69099644e-02  7.28670741e-04]
   [ 1.46550518e-02 -1.67443603e-02  1.38849008e-03 ...  2.42516659e-02
    -6.26326678e-03 -9.32047516e-03]]

  [[ 5.52369095e-03  5.93602424e-03  2.99311569e-03 ... -6.02036063e-03
     6.13147113e-03  3.93650960e-03]
   [ 6.33160817e-03  1.51719782e-04  6.86428975e-03 ...  9.28770471e-03
     9.24164243e-03  1.36949886e-02]
   [ 1.72136631e-02 -2.47198186e-04  2.31099059e-03 ...  1.44552367e-04
    -4.64116177e-03 -5.04536694e-03]
   ...
   [-2.71277409e-03 -4.75835102e-03 -9.67833027e-03 ... -1.63497794e-02
     7.21975230e-03  5.94335189e-03]
   [ 5.56163490e-03 -2.50189882e-02 -2.42780056e-02 ...  1.03002405e-02
     5.00120316e-03  1.19538372e-02]
   [-1.64553821e-02 -8.61642766e-04 -1.59917884e-02 ...  2.52455543e-03
     8.73258989e-03  2.79938821e-02]]]]layer15/weights:0[[[[ 0.01065302 -0.00924132  0.00635786 ... -0.00100312 -0.0122656
     0.0102376 ]
   [ 0.00340438  0.00336491 -0.01014155 ...  0.00752541  0.00131679
     0.00072385]
   [ 0.00627143 -0.00057655  0.00883958 ... -0.00263838 -0.00180122
    -0.01629589]
   ...
   [ 0.00434726 -0.01645261 -0.00435869 ... -0.00256526 -0.00463841
     0.00472757]
   [-0.01013704 -0.00840476 -0.01029719 ... -0.00739487 -0.00798134
     0.01295384]
   [ 0.01348174  0.00171323 -0.00998421 ... -0.01110454 -0.00623078
     0.0149392 ]]]]layer16/weights:0[[[[-5.24480967e-03  2.29638256e-03 -1.50023941e-02 ...  6.88595045e-03
     1.83732528e-02  2.48737237e-03]
   [ 1.52593041e-02 -9.56659298e-03 -1.03685372e-02 ...  9.62736830e-03
    -6.90139737e-03  6.77191559e-03]
   [ 1.13047045e-02 -2.77690985e-03 -1.08884613e-03 ... -1.03902002e-03
    -2.02191854e-03  1.45306264e-03]
   ...
   [-3.66211100e-03 -2.21223905e-04  5.04374690e-03 ...  4.05562995e-03
    -1.77337113e-03 -2.90343515e-03]
   [ 6.93755643e-03 -3.76513973e-03  6.20513223e-03 ... -6.07631402e-03
    -1.58870053e-02  2.00263388e-03]
   [ 4.00106516e-03  3.69346049e-03 -7.87498895e-03 ...  1.32118240e-02
    -2.83552101e-03 -1.55389346e-02]]

  [[-1.87048875e-02 -1.08147152e-02 -2.18410185e-03 ... -1.29465880e-02
    -2.28540367e-03 -4.17549815e-03]
   [ 3.20172426e-03 -5.00762276e-03  6.68214308e-03 ... -3.05489916e-03
    -2.51400890e-03 -2.04236284e-02]
   [ 8.30729026e-03 -1.39623601e-02  1.51300207e-02 ... -4.44801291e-03
     4.39495593e-03 -8.20245408e-03]
   ...
   [-8.10258463e-03 -4.72902227e-03  6.54816628e-03 ...  9.65685816e-04
     1.60889060e-03  1.92382839e-02]
   [-1.54303322e-02  1.04404464e-02 -8.42491630e-03 ...  2.47525470e-03
    -2.62426981e-03 -1.29423793e-02]
   [-6.89999375e-04  1.48238882e-03 -2.55708396e-03 ...  3.73936584e-03
    -1.43378880e-02  1.48891751e-02]]

  [[-8.12586490e-03 -3.69447679e-03  9.59124509e-03 ... -4.27198783e-03
     6.50404394e-03 -1.18110180e-02]
   [ 7.41294120e-03  3.32037429e-03  4.21478786e-03 ...  1.51984878e-02
    -1.76220797e-02  1.54812317e-02]
   [ 9.01984517e-03 -4.13109409e-03  3.94672202e-03 ... -1.49971796e-02
     5.34072099e-03 -4.05071629e-03]
   ...
   [-2.27014511e-03  9.98331141e-03  1.07207214e-02 ...  6.04582392e-03
     7.15937791e-03  4.13175812e-03]
   [-1.57723129e-02  1.69004165e-02 -8.15267861e-03 ... -1.03590647e-02
    -1.95393711e-02 -1.11153699e-03]
   [ 8.98472685e-03 -9.28899180e-03  6.98817382e-03 ...  2.20829248e-03
     1.26300696e-02  6.94798946e-04]]]


 [[[-3.72767402e-03 -5.05082030e-03 -6.09538611e-03 ...  1.38769485e-02
    -3.32474965e-03 -1.92974843e-02]
   [ 9.00087599e-03 -5.50316786e-03 -2.35396586e-02 ...  2.22515017e-02
    -1.02844965e-02  2.16776505e-03]
   [ 1.18456036e-02  4.57821088e-03 -8.15537106e-03 ... -4.12871176e-03
    -4.03208099e-03 -2.38555428e-02]
   ...
   [ 1.80609326e-03 -9.35877394e-03 -1.10402117e-02 ... -3.75203417e-05
     4.49744053e-03  4.83976118e-03]
   [ 6.67507993e-03 -5.79540106e-03  7.07966276e-03 ... -1.03050016e-03
     3.95132368e-03 -1.75346266e-02]
   [ 4.88935271e-03  8.30639433e-03  9.35936533e-03 ...  1.25560528e-02
     1.32339997e-02 -1.08510186e-03]]

  [[-2.82779080e-03 -7.89509341e-03 -6.95431186e-03 ...  6.43585902e-03
     1.48002133e-02  1.19945901e-02]
   [-7.87791330e-03 -5.19975380e-04  1.89665495e-03 ...  6.87968777e-03
     1.25454301e-02 -1.15027176e-02]
   [-1.91634465e-02 -6.66593492e-04 -1.27054658e-02 ...  1.01005810e-03
    -7.32718734e-03 -7.77790265e-04]
   ...
   [-7.19625456e-03  4.18504048e-03 -1.29527105e-02 ... -1.84837412e-02
     3.67325288e-03  6.93389820e-03]
   [-1.78631041e-02  1.53621938e-03 -3.97353945e-03 ...  1.45640112e-02
     7.75168370e-03  2.15681386e-03]
   [ 9.62588098e-03  7.66818598e-03  2.39198911e-03 ... -1.36314577e-03
     4.13024239e-03  2.12636702e-02]]

  [[ 8.34980092e-05 -4.03881771e-03  1.55863427e-02 ... -1.20178917e-02
    -1.03612628e-03 -2.29824614e-03]
   [-1.70744024e-03 -1.76196303e-02  4.55318717e-03 ...  6.44985074e-03
    -2.61211814e-03 -1.34792011e-02]
   [-9.02939402e-03  1.08728353e-02 -2.09576432e-02 ... -2.38989433e-03
    -9.21714585e-03  5.67817129e-03]
   ...
   [-1.26213096e-02  1.14403348e-02 -1.31643796e-02 ... -1.90933011e-02
     7.40806898e-03  1.52973493e-03]
   [ 1.51647558e-03 -2.92928685e-02 -6.99589029e-03 ... -1.65917433e-03
     9.12288111e-03  2.58202315e-04]
   [-6.26179343e-03 -6.62398571e-03  2.82577332e-03 ...  1.22505017e-02
     7.21099554e-03  4.38160542e-03]]]


 [[[ 5.64333703e-03  4.04166663e-03 -1.11555588e-02 ... -5.20204613e-03
    -6.54731318e-03 -1.70475373e-03]
   [-1.12458374e-02 -5.09235123e-03  8.42723809e-03 ... -3.22678266e-03
    -6.49385573e-03  8.55411752e-04]
   [-2.50720792e-02  8.77698418e-03 -1.25855329e-02 ... -8.77445377e-03
    -8.61221552e-03 -2.23369570e-03]
   ...
   [ 1.18701998e-02 -6.02034805e-03  1.93034708e-02 ... -7.06313178e-03
    -2.09297496e-03 -3.58057587e-04]
   [-6.09559380e-03  4.92313819e-04  2.86445161e-03 ...  7.35039683e-03
     5.28703968e-04  6.03937916e-03]
   [-6.71878504e-03  7.29910145e-03 -8.40636715e-03 ...  7.89457234e-04
    -2.45752302e-03 -4.09042137e-03]]

  [[-8.33926536e-03  2.64943251e-03 -7.18835136e-03 ... -2.81036342e-03
     8.38621892e-03  9.37703904e-03]
   [ 1.62864532e-02  6.42333180e-03  6.08172268e-03 ... -2.37320289e-02
    -4.18459438e-03  1.73036649e-03]
   [-6.52532512e-03  4.63021733e-03 -1.26547338e-02 ... -1.36480667e-02
     1.53328152e-02 -4.44339169e-03]
   ...
   [-6.64765621e-03  8.08674935e-03 -1.22987730e-02 ... -5.79728326e-03
    -2.68710754e-03 -5.60574280e-03]
   [-2.82985042e-04 -5.88808348e-03 -4.80985641e-03 ... -5.21230744e-03
     4.44595423e-03  5.69503708e-03]
   [ 1.31916320e-02 -1.13897333e-02 -1.87408365e-03 ... -2.39613280e-02
    -6.33990974e-04 -4.86669969e-03]]

  [[-1.01510491e-02  6.39728736e-03  1.00855306e-02 ... -1.00424858e-02
     8.49139353e-04  1.04478346e-02]
   [-6.67020911e-03 -5.43347746e-03  1.66333504e-02 ...  6.87885750e-03
    -5.86507050e-03 -1.42951133e-02]
   [-2.47381534e-02 -1.59485247e-02  4.54087742e-03 ...  1.91384777e-02
    -1.09033715e-02  9.63984057e-03]
   ...
   [-9.87067539e-03  9.81189962e-03  8.42226553e-04 ... -2.33432502e-02
    -1.35967061e-02 -7.75907794e-03]
   [ 1.07503086e-02 -1.18920645e-02  4.69816441e-04 ...  6.99876668e-03
     1.59687828e-02  9.32988804e-03]
   [-1.41555665e-03 -7.48309493e-03  6.02322118e-03 ...  2.26150192e-02
    -1.92845687e-02 -4.93808696e-03]]]]layer17/weights:0[[[[ 3.63805355e-03 -6.64580474e-03 -1.20549393e-03 ...  9.66767184e-05
     2.16135513e-02 -5.71068609e-03]
   [-3.89860943e-03  6.58331031e-04 -1.52383251e-02 ... -8.07833113e-03
    -2.06262004e-02  7.91752059e-03]
   [ 1.35095632e-02  6.83067832e-03 -1.91784874e-02 ...  7.18512991e-03
    -1.17821675e-02  3.27267614e-03]
   ...
   [-9.20301955e-03  9.92023386e-03 -1.51542649e-02 ... -5.30790864e-03
     8.68156552e-03  4.76306537e-03]
   [-1.69987848e-04  1.62005471e-03 -4.65836795e-03 ...  6.44764630e-04
     3.93031311e-04 -1.23876333e-03]
   [ 9.65157058e-03  9.97211132e-03  2.62121926e-03 ...  9.91061982e-03
     1.13592448e-03  2.45829709e-02]]]]layer18/weights:0[[[[-6.52334560e-03 -5.88259008e-03  1.06530462e-03 ...  1.13159129e-02
     2.74445792e-03 -3.94985825e-03]
   [ 1.68154966e-02  4.22424730e-03 -2.89872731e-03 ... -6.25062315e-03
    -3.87296593e-03  9.25953221e-03]
   [ 1.11893583e-02  5.32973837e-03 -9.43757873e-03 ... -1.03067067e-02
    -6.12602197e-03 -3.61889112e-03]
   ...
   [ 8.53691343e-03  6.52217213e-03 -2.91234511e-03 ...  1.81274244e-03
    -1.59109477e-02  6.60071708e-03]
   [ 4.53496026e-03  1.48017071e-02 -6.11816905e-03 ... -1.56527646e-02
     6.29268494e-03 -2.26565218e-03]
   [-4.23549238e-04  1.51218753e-02 -8.48817360e-03 ... -1.97181012e-02
     5.97048551e-03  1.39473111e-03]]

  [[ 5.08980686e-03 -4.75602876e-03 -1.99324451e-02 ... -1.18723942e-03
    -1.35256432e-03  1.60679054e-02]
   [-7.31582753e-03  9.42664035e-03 -1.65638316e-03 ...  8.23161099e-05
    -8.71346425e-03  4.45382809e-03]
   [ 1.14067402e-02 -8.30123667e-03 -5.56232082e-03 ...  8.32030084e-03
     4.08979831e-03  5.64858643e-03]
   ...
   [ 7.53738033e-03 -9.65379644e-03 -5.03981195e-04 ...  4.27268073e-03
     9.14162677e-03  1.79679366e-03]
   [ 1.73565708e-02 -3.07273353e-03  6.11197017e-03 ... -1.04954327e-02
     1.20645557e-02 -3.39841028e-03]
   [-2.02941708e-03 -6.97293493e-04 -1.09753795e-02 ... -1.01732761e-02
     2.27098130e-02 -2.84597767e-03]]

  [[ 2.68582255e-03  1.94364898e-02  3.20825051e-03 ... -4.31440212e-03
    -9.69073456e-03  1.75771303e-03]
   [ 1.19209746e-02 -1.54344989e-02  8.65113270e-03 ... -3.77429859e-03
     3.70456558e-03  3.58989788e-03]
   [-2.89101806e-02 -3.94314574e-03  9.52551607e-03 ... -8.05801188e-04
     3.37032578e-03 -2.18852161e-04]
   ...
   [ 1.83342036e-03 -2.08475590e-02 -4.19025170e-03 ...  1.23917218e-02
     6.70132414e-03  3.48631525e-03]
   [ 1.11506060e-02 -1.01898899e-02  4.21534106e-03 ... -1.10340379e-02
     4.31596953e-03  4.65970807e-04]
   [-3.12407222e-03  2.32661213e-03 -1.09988339e-02 ...  5.72461402e-03
     5.89401694e-03  2.36521731e-03]]]


 [[[ 2.09840876e-03 -3.09169386e-03 -1.09358225e-03 ...  1.13977753e-02
     3.50456714e-04 -3.20006371e-03]
   [ 1.73169132e-02 -3.28995287e-04  1.03136590e-02 ...  1.59993451e-02
    -5.85832633e-03 -7.90628418e-03]
   [ 5.11243055e-03  2.11859122e-02 -1.11293616e-02 ... -7.06525799e-03
     8.00293125e-03 -9.97447222e-03]
   ...
   [-5.29026892e-03 -9.86327138e-03  2.50348728e-02 ...  5.98355522e-03
    -5.39508415e-03  1.33151840e-02]
   [ 5.42780291e-03  9.96945985e-03 -1.22701889e-02 ... -1.38801700e-02
     3.67506989e-03  1.68287177e-02]
   [-2.36354396e-02 -9.96089261e-03 -1.04136835e-03 ...  1.69327576e-03
     3.58504651e-04  7.37896422e-03]]

  [[ 4.00511455e-03 -1.52638613e-03 -1.62944961e-02 ...  6.88187638e-03
    -1.05579291e-02  5.65232430e-03]
   [-5.55896712e-03  4.18957468e-04  8.89738649e-03 ...  2.77547020e-04
    -1.65741844e-03  4.92772227e-03]
   [ 2.73501966e-03  9.89798643e-03  1.93308163e-02 ... -4.53909114e-03
     8.21913220e-03  2.77803419e-03]
   ...
   [ 7.02384952e-03  1.69048216e-02  1.05372341e-02 ...  2.63250060e-02
     4.64307610e-03 -1.05789034e-02]
   [-1.02772573e-02  5.07831248e-03  1.32385558e-02 ...  1.57889590e-04
    -1.07261189e-03  4.83279256e-03]
   [ 1.42630162e-02  1.14272106e-02  2.05607954e-02 ...  1.96776656e-03
     1.60192754e-02  7.09171873e-03]]

  [[ 2.02205312e-02  4.79038851e-03 -6.43161451e-03 ... -9.63515230e-03
     1.89416565e-03  2.87794485e-03]
   [-2.52661873e-02 -4.74849576e-03  9.66851227e-03 ... -1.63744309e-03
     9.66296438e-03 -1.09581929e-02]
   [-1.25162965e-02  1.02145539e-03 -8.43617879e-03 ... -5.10306237e-03
    -1.33347828e-02 -1.07952589e-02]
   ...
   [-3.00166104e-03  6.47569215e-03  4.29376261e-03 ... -9.72065609e-03
    -1.02101685e-02 -4.56391741e-03]
   [-6.14330638e-03 -2.51699518e-03  4.52334713e-03 ... -1.12300320e-03
    -2.26614904e-02 -3.55174881e-03]
   [ 5.60028479e-03  1.52130593e-02 -8.28996859e-03 ... -3.57223814e-03
     5.08213136e-03 -1.15951532e-02]]]


 [[[ 8.47374462e-03  7.13633234e-03 -3.13403294e-03 ...  4.73364163e-03
     7.42143858e-03  1.28736785e-02]
   [-6.44378969e-03 -3.29913595e-03 -6.34361058e-03 ...  2.61364039e-02
     6.80561468e-04 -6.33888179e-03]
   [ 8.38710088e-03 -7.65661150e-03 -9.92424320e-03 ...  1.23361265e-02
     3.97906685e-03 -2.44901981e-03]
   ...
   [ 1.35859624e-02  2.05206815e-02 -1.44672208e-03 ... -3.55150178e-03
     1.77906379e-02  3.59296892e-03]
   [-2.73063546e-04  1.92599855e-02 -2.19697109e-03 ... -6.41718181e-03
    -1.33321770e-02  2.70668208e-03]
   [-8.72410648e-03 -1.13935117e-02 -3.13755684e-03 ... -1.45316310e-02
    -7.58974580e-03  6.92020031e-03]]

  [[ 7.49507174e-03 -1.05635356e-02 -1.64577141e-02 ...  8.16552856e-05
     6.86715078e-03  7.27682898e-04]
   [ 6.38936553e-03  1.29765423e-03 -9.33207013e-03 ... -1.96210793e-04
    -6.26612594e-03 -1.56633396e-04]
   [-2.33972096e-03 -3.62931823e-05  1.38311018e-03 ...  2.05188268e-03
    -9.24144033e-03  5.64783695e-04]
   ...
   [-5.66091714e-03  7.95224123e-03 -1.93778630e-02 ...  5.72594581e-03
    -6.59710541e-03 -6.94381772e-03]
   [ 4.10611276e-03  8.08558241e-03 -2.01071501e-02 ...  8.63251463e-03
     1.47980778e-02  4.87313373e-03]
   [-7.48956809e-03 -7.20695313e-03 -9.97145195e-04 ... -2.98274565e-03
    -1.39172925e-02 -2.43910705e-03]]

  [[ 7.52256718e-03  7.76998606e-03  9.21667460e-03 ...  2.01118295e-04
    -5.03322436e-03 -7.14371447e-04]
   [-1.61001068e-02 -6.71735499e-03 -8.32603662e-04 ... -2.24646856e-03
    -2.42091087e-03 -1.33985037e-03]
   [-2.36035208e-03 -5.35914907e-03  7.01477053e-03 ... -8.73402040e-03
     2.55436869e-03  1.12550044e-02]
   ...
   [ 8.90848506e-03 -7.38907780e-04 -1.81753363e-03 ... -3.08800507e-02
    -4.66605369e-03  5.47079509e-03]
   [-1.57136237e-03  2.10849326e-02  4.40936396e-03 ... -8.61586630e-03
     1.53387344e-04  8.38409294e-04]
   [ 1.68936122e-02 -1.83159839e-02  3.76736955e-03 ... -5.94284059e-03
     4.48007928e-03 -8.93111899e-03]]]]layer19/weights:0[[[[ 1.89959034e-02 -8.16236902e-03  1.29642077e-02 ... -2.89439457e-03
     1.72080640e-02 -9.99436597e-04]
   [-1.76744591e-02 -6.46051904e-03 -5.44182491e-03 ... -1.31408256e-02
     1.51801354e-03  1.92870386e-03]
   [-9.81915556e-03  7.90335983e-03  1.23464065e-02 ... -4.73049888e-03
    -1.42109776e-02  7.91023858e-03]
   ...
   [-8.13666359e-03  2.39549484e-03 -8.09752289e-03 ...  8.86666647e-04
    -1.06827058e-02 -4.70590079e-03]
   [ 7.56937126e-03  7.54406769e-03 -6.27123471e-03 ...  3.49480496e-03
    -2.45286105e-03  2.50886139e-02]
   [-2.46912204e-02  1.45161897e-02 -3.78908706e-03 ...  3.77224735e-03
     1.54076319e-03  2.19358057e-02]]

  [[-1.00192707e-03  5.52411797e-03 -2.37642671e-03 ... -1.43184336e-02
     1.26748411e-02 -5.87909343e-03]
   [-3.36983195e-03 -1.54934172e-03  2.27609724e-02 ... -3.41900159e-03
    -8.49539135e-03 -1.21766580e-02]
   [ 1.01809972e-03  1.39318556e-02  8.63482803e-03 ...  2.15263255e-02
     1.16090160e-02 -2.16114018e-02]
   ...
   [-5.94389439e-03 -1.05558308e-02  1.13223447e-03 ... -3.47388414e-04
     5.99645916e-03  4.41104919e-03]
   [-1.19503327e-02  6.56892685e-03 -1.19087368e-03 ... -1.39240874e-02
    -8.74833297e-03  1.46425823e-02]
   [-1.60831783e-03 -7.59681873e-03 -1.10787293e-02 ...  4.09456994e-03
    -9.29621421e-03  4.48237127e-03]]

  [[-5.41521411e-04  2.75566382e-03 -9.44668707e-03 ... -1.83371715e-02
     9.49497893e-03  1.17290001e-02]
   [ 5.81828551e-03 -1.14283348e-02  2.43314495e-03 ... -5.28167642e-04
     1.00141792e-02  8.45056027e-03]
   [ 6.36075344e-03 -5.73662203e-03  2.03313376e-03 ...  6.96352962e-03
    -1.29112573e-02  5.15824417e-03]
   ...
   [ 3.64600361e-04 -8.52883421e-03  1.07115991e-02 ...  2.60342052e-03
     1.80270132e-02  1.63454581e-02]
   [-2.20406381e-03  7.96894263e-03 -1.87882762e-02 ...  3.51311988e-03
     5.69777843e-03 -2.79131737e-02]
   [-1.44457435e-02 -9.46757197e-03 -5.41438023e-03 ... -2.23636837e-03
    -9.38591827e-03  1.29225813e-02]]]


 [[[ 4.22895682e-04  1.97853483e-02 -1.74507257e-02 ...  1.22667123e-02
     5.05557936e-03  5.26037207e-03]
   [ 1.58430077e-03 -1.04578314e-02  3.33985896e-03 ... -1.16242729e-02
     3.06730741e-03 -8.92093871e-03]
   [-9.40179452e-03 -9.45255440e-03  1.41893851e-03 ... -9.47776064e-03
    -2.28982791e-03  1.69428222e-05]
   ...
   [-5.38535835e-03  9.13470332e-03 -5.72330458e-03 ... -1.03873350e-02
    -4.54622833e-03  1.23252878e-02]
   [-6.73740404e-03 -2.03053504e-02 -8.96539364e-04 ...  1.64517071e-02
    -1.56365149e-02  4.99822272e-05]
   [ 1.62067488e-02  2.46076728e-03  1.15773287e-02 ...  2.25227489e-03
     2.08414402e-02 -1.16046239e-02]]

  [[-5.95952105e-03 -1.46024185e-03 -3.01557098e-04 ...  7.20227836e-03
    -2.72204969e-02 -2.24742643e-03]
   [ 6.40228204e-03 -7.63640320e-03  1.73435733e-02 ... -1.82578841e-03
    -1.39587531e-02  2.73294654e-03]
   [-7.24135246e-03 -7.49950856e-03  9.77589935e-03 ... -5.51295653e-03
    -5.11709182e-03  5.20782406e-03]
   ...
   [-1.31517672e-03  2.29302868e-02  2.36228351e-02 ... -9.63181083e-05
    -1.99151621e-03  1.05336832e-03]
   [ 3.01495683e-03 -3.66136595e-03 -1.02610895e-02 ...  1.88585408e-02
     1.03904272e-03  1.11480588e-02]
   [-2.57131574e-03 -6.93587470e-04 -2.89919437e-03 ...  1.44185619e-02
     6.86067948e-03 -1.86603470e-03]]

  [[ 1.25731891e-02 -4.93391301e-04  1.73636302e-02 ...  2.84810015e-03
    -1.22305797e-02  6.02787500e-03]
   [ 4.42102132e-03 -1.70008186e-02  9.79975448e-04 ... -1.18347984e-02
     1.21940989e-02  1.57907289e-02]
   [ 2.93491199e-03  5.43320272e-03  3.25751398e-03 ... -8.73113866e-04
    -1.27417967e-02  4.73285327e-03]
   ...
   [-2.21657613e-03 -7.88890943e-03 -4.35326109e-03 ...  1.01985931e-02
    -9.18617193e-03  6.69551222e-03]
   [-6.63285051e-03 -1.93605421e-03 -1.49143338e-02 ...  1.32336495e-02
     3.25980992e-03 -3.79464380e-03]
   [ 1.68567300e-02 -3.85014317e-03  5.98102668e-03 ...  4.65570576e-03
    -8.78271647e-03 -1.50799938e-02]]]


 [[[-5.79782110e-03 -9.47324093e-03 -6.24264823e-04 ...  3.29206907e-03
    -1.26133086e-02  3.75387352e-03]
   [-4.11880761e-03 -6.32350054e-03  6.64153718e-04 ... -2.62869569e-03
     1.62521116e-02  1.14963213e-02]
   [ 1.84216741e-02 -9.25077009e-04  1.32601736e-02 ... -1.65338872e-03
    -6.69209007e-03  4.30444488e-03]
   ...
   [ 4.64373128e-03  3.26542812e-03  7.32500991e-03 ... -8.44575174e-04
     4.63111605e-03 -8.20973888e-03]
   [-2.12946674e-03 -8.76129512e-03  2.45197234e-03 ...  3.83615191e-03
    -2.19632685e-03 -1.89129252e-03]
   [-1.74082592e-02 -5.65274013e-03 -6.87303115e-03 ...  1.42389238e-02
    -2.54116468e-02  6.98440801e-03]]

  [[-1.18582947e-02 -4.52565914e-03 -1.54232164e-03 ...  9.80993547e-03
    -1.46037759e-03  3.52053484e-03]
   [-1.14361057e-03  1.92167796e-02 -7.07871141e-03 ... -4.28464729e-03
    -5.82982460e-03 -7.51304813e-03]
   [-1.68610795e-03  1.34025598e-02 -7.58889690e-03 ...  8.44819751e-03
    -1.85310058e-02  1.70174371e-02]
   ...
   [ 1.48592871e-02  1.91812292e-02 -4.95240372e-03 ... -1.55999446e-02
    -6.89654285e-03  4.13846970e-03]
   [ 4.30802302e-03 -1.72351468e-02 -1.37310205e-02 ...  9.26043373e-03
    -1.13657061e-02  3.87600157e-03]
   [-6.30929181e-03 -5.39405923e-03  3.11762188e-02 ... -2.39784201e-03
     4.78754565e-03  1.58257330e-06]]

  [[ 3.73477669e-04  3.33378586e-04  4.58611595e-03 ...  1.57949061e-03
     5.67513146e-03  8.08332115e-03]
   [ 1.22273862e-02 -2.13133032e-03 -8.09437037e-03 ... -6.71549980e-03
     9.30894818e-03 -8.39044433e-03]
   [-9.62320343e-03  4.05149907e-03 -1.37673607e-02 ...  6.04310073e-03
    -2.00672373e-02 -7.16743851e-03]
   ...
   [-9.65464045e-04  1.74464136e-02  8.11357610e-03 ...  9.74927004e-03
    -9.02079698e-03 -4.71412670e-03]
   [ 2.43396522e-03 -5.28947450e-04 -7.22988928e-03 ...  5.00014517e-03
     1.59048429e-03  1.10995686e-02]
   [-3.68003501e-03  1.00485759e-03 -1.28947878e-02 ... -5.71883516e-03
    -1.51500979e-03  1.36901457e-02]]]]layer20/weights:0[[[[-0.00246436  0.00647374  0.00926968 ... -0.01780618 -0.00408014
     0.00664943]
   [-0.01174414 -0.00085436 -0.0060247  ...  0.00913342  0.01007008
     0.00473333]
   [ 0.00982209 -0.01538551 -0.0153446  ... -0.01746609  0.01170349
    -0.00481407]
   ...
   [-0.00726599 -0.00474283  0.00548541 ... -0.00049942 -0.00528374
     0.00263036]
   [ 0.00290618 -0.00532757 -0.0095026  ...  0.00881168 -0.00647317
    -0.02040374]
   [ 0.01497352  0.0084916  -0.00344725 ... -0.01493948 -0.01498279
    -0.01194949]]

  [[-0.00937638 -0.00485954  0.00049622 ...  0.00408916  0.0055736
     0.0195751 ]
   [ 0.00837963  0.00315012  0.00236149 ...  0.00491737 -0.00272523
     0.00134301]
   [ 0.01099556 -0.00139846 -0.01829516 ...  0.0024526   0.01755054
     0.00674563]
   ...
   [ 0.00031817 -0.0208107  -0.01021696 ...  0.01447018  0.0124533
     0.01191348]
   [-0.00747903  0.01325181 -0.00218505 ...  0.00282029  0.00214769
     0.00232278]
   [ 0.00151098  0.00647175  0.00971952 ... -0.0051502  -0.00952963
     0.01031191]]

  [[-0.01142709 -0.0137176   0.0056638  ... -0.01117337  0.02011308
     0.00618833]
   [-0.00587832 -0.02350911 -0.01039037 ... -0.00619269  0.02704125
     0.00037467]
   [ 0.02430262 -0.0118355  -0.02163479 ...  0.00595822  0.01051405
     0.01667663]
   ...
   [-0.01008051  0.00279729  0.01475215 ...  0.0074079   0.00731159
    -0.01149016]
   [-0.00188377 -0.00556724  0.00522146 ...  0.00991393  0.0114412
    -0.01944132]
   [ 0.00648028  0.0013946   0.00266835 ...  0.00158079  0.01942406
    -0.00080521]]]


 [[[ 0.00649927 -0.02426572  0.00644984 ... -0.00283803 -0.00238517
    -0.00501629]
   [-0.0065099   0.01077067  0.0119975  ...  0.01999116 -0.00160708
    -0.01475622]
   [ 0.01109019  0.0154694   0.02056898 ... -0.00519991 -0.00791774
    -0.00269477]
   ...
   [ 0.00506599  0.00042063 -0.00530155 ... -0.00731803 -0.00564703
     0.00514713]
   [ 0.00431449 -0.00092815 -0.01365546 ... -0.01716715 -0.00209203
    -0.01785787]
   [-0.00429408  0.0076298   0.00265312 ...  0.00729476  0.01262203
     0.01555352]]

  [[ 0.00937195  0.00987021 -0.0083038  ...  0.0140342   0.01610544
    -0.0162526 ]
   [ 0.0015788   0.01662293  0.00349836 ... -0.01021481 -0.00657171
     0.01505943]
   [ 0.01438409  0.03230548  0.00102269 ... -0.00643247 -0.01074691
    -0.01985533]
   ...
   [ 0.01552826 -0.0157371   0.00413907 ...  0.00301253  0.01195988
     0.01101029]
   [-0.01971184  0.00838624 -0.00373329 ...  0.00157739 -0.01825351
     0.00140756]
   [-0.00648562  0.0044025   0.00281816 ...  0.00093276 -0.00546336
     0.00102851]]

  [[ 0.0073048  -0.01741051 -0.03173307 ...  0.01658526  0.01880109
    -0.03264611]
   [-0.00155912  0.00232883  0.01198323 ... -0.00677974  0.0017942
     0.00123453]
   [ 0.01570652  0.00026654 -0.01212073 ... -0.00736051 -0.00305337
     0.00295936]
   ...
   [-0.00058378 -0.02060591  0.00665737 ... -0.01488384  0.01435265
    -0.00885998]
   [-0.00471663  0.0114938  -0.01121844 ...  0.01055482  0.01480525
     0.00686403]
   [ 0.00778204  0.00507492  0.01084596 ... -0.00410106 -0.00071542
    -0.02483979]]]


 [[[-0.00526273  0.00912419  0.0062034  ... -0.00343027 -0.01214969
    -0.01504592]
   [-0.00101269 -0.00841715 -0.01652094 ... -0.00368067  0.00417456
     0.00734107]
   [ 0.0010514  -0.00996962  0.01033369 ...  0.00618442  0.0158664
     0.00781056]
   ...
   [-0.00578535  0.0126737  -0.00288179 ... -0.00914301  0.00577183
    -0.01636126]
   [-0.00467769 -0.00569124  0.00250134 ...  0.01025034  0.01036602
    -0.00185443]
   [-0.01798658  0.0109025   0.00118836 ... -0.00677984 -0.01980707
     0.01724328]]

  [[-0.00879856  0.00503182  0.01081372 ... -0.00228386 -0.00814593
    -0.00615618]
   [-0.00072293 -0.00068976 -0.00959986 ...  0.0160547   0.00500878
     0.01417101]
   [ 0.00968801 -0.00714944  0.01116981 ...  0.00382779  0.00297687
    -0.00607109]
   ...
   [ 0.00781659 -0.00831895 -0.0169025  ... -0.00480456 -0.0113869
    -0.00466694]
   [-0.0029506  -0.00786073  0.01644449 ...  0.00194011  0.01708907
    -0.01404458]
   [ 0.00400109 -0.00041847  0.0056392  ...  0.01353371 -0.00527337
    -0.00574984]]

  [[-0.01503735 -0.00936141 -0.01072934 ... -0.01388245  0.00046819
    -0.00139058]
   [-0.00813893 -0.02530719  0.00591165 ...  0.01117409 -0.00289279
     0.00228373]
   [-0.00303589 -0.00383958  0.00719671 ... -0.01336206  0.01365163
    -0.02095945]
   ...
   [-0.0007117   0.00152984 -0.00513485 ... -0.01558731  0.00777862
    -0.00854656]
   [-0.00310404 -0.00165091  0.00981119 ... -0.01002244 -0.00119044
    -0.00275754]
   [ 0.01747061 -0.00930458 -0.01129452 ... -0.00823438  0.0109051
    -0.00400961]]]]layer21/weights:0[[[[ 4.01372090e-03 -4.84909257e-03  3.18219373e-03 ...  1.50717087e-02
     2.58539384e-03 -2.42763851e-03]
   [-1.13381455e-02 -5.78788016e-03  3.40655260e-03 ... -8.91608652e-03
     1.16487569e-03 -1.41346194e-02]
   [-8.82965699e-03 -2.38712458e-03  2.56144889e-02 ... -1.44577278e-02
    -4.68143029e-03  2.27924511e-02]
   ...
   [ 5.75461658e-03 -6.55288808e-03  1.39785977e-02 ...  1.56201925e-02
     2.08380762e-02  5.39427716e-03]
   [-8.51540267e-03  5.29959239e-03 -1.54535081e-02 ... -8.57198797e-03
     2.00472958e-03  1.19925225e-02]
   [-1.32821612e-02 -1.94309887e-05 -5.44070092e-04 ... -2.56245257e-03
    -1.17858546e-03  3.34953098e-03]]]]layer22/weights:0[[[[-1.54488720e-02  2.21316586e-03 -6.21143542e-03 ... -1.56370818e-03
     1.65080633e-02  6.42299885e-03]
   [-1.97117664e-02  1.16629712e-02  2.10955995e-03 ... -1.31928828e-03
    -1.30667659e-02 -2.10400182e-03]
   [ 4.71940078e-03  8.97897314e-03  1.38961514e-02 ... -4.02272388e-04
     5.81106124e-03  7.77169783e-03]
   ...
   [ 1.54638924e-02 -1.09134633e-02 -6.69246027e-03 ... -5.64698421e-04
    -5.03530726e-03  7.85089564e-03]
   [-1.40436850e-02  8.15858878e-03  5.13153267e-04 ...  8.87730159e-03
     7.99569115e-03  1.23298448e-02]
   [-1.98450387e-02 -1.54697299e-02 -3.86567524e-04 ... -1.89820374e-03
    -3.71411885e-03 -3.24594392e-03]]

  [[-3.59555962e-03  1.18582761e-02 -5.35107870e-03 ...  9.52297822e-03
    -1.34919528e-02 -1.89253706e-02]
   [-1.58280637e-02  7.55197648e-03  1.95380840e-02 ... -1.19657516e-02
    -1.04352999e-02  3.43420869e-03]
   [ 4.19755094e-03 -3.34927551e-02  4.83876606e-03 ...  1.77264046e-02
    -9.56017524e-03 -1.40105532e-02]
   ...
   [ 9.60862637e-03 -9.42547340e-03 -1.34094572e-02 ... -2.31508375e-03
    -2.31016497e-03 -1.66910645e-02]
   [-1.13009578e-02  1.48992278e-02 -9.31657292e-03 ...  4.22672974e-03
    -5.61430526e-04  3.84447607e-03]
   [ 1.94952451e-02 -7.42027024e-03  3.67466500e-03 ... -1.49532524e-03
     3.98117257e-03  1.57670379e-02]]

  [[ 1.16961412e-02 -5.10624144e-03  1.85777445e-03 ... -1.70629029e-03
     3.11533851e-03  9.86536779e-03]
   [-1.16666108e-02 -2.72057950e-03 -9.82369017e-03 ...  4.40878049e-03
    -5.86456852e-03 -1.49715934e-02]
   [-1.40001459e-04 -7.50330370e-03  4.28751716e-03 ...  3.61016952e-03
    -8.73392168e-03 -4.40193154e-03]
   ...
   [ 1.73006803e-02  6.48834230e-03  3.13083781e-03 ... -1.17976097e-02
    -1.65841752e-03  2.25002249e-03]
   [-5.80713898e-03  2.47395746e-02 -1.13582294e-02 ... -1.13889882e-02
     7.43415067e-03  2.43620714e-03]
   [-2.68201390e-03 -1.26078667e-03 -5.60949417e-03 ...  4.79432201e-04
     1.11793028e-02 -1.43555617e-02]]]


 [[[ 2.06307205e-03  7.94498250e-03 -1.62107386e-02 ...  4.84060450e-03
    -1.90842599e-02  1.50623120e-04]
   [ 2.61922390e-03 -5.42480452e-03 -1.54224830e-02 ...  1.21355569e-02
     8.18161946e-03  4.31349094e-04]
   [-1.46810329e-02 -2.06895894e-03  1.11822458e-02 ... -7.43067916e-03
    -1.20752146e-02 -2.10533850e-03]
   ...
   [-3.19871749e-03 -3.87607119e-03  2.09224112e-02 ... -1.57784987e-02
     7.99330324e-03 -5.14340401e-03]
   [-1.64358038e-03  5.56937652e-03  1.80502087e-02 ...  1.26314303e-02
     1.60763431e-02 -7.52355484e-03]
   [-5.18543180e-03  3.33017600e-03  2.29406403e-04 ... -3.66676948e-03
     7.89443031e-03  2.53782645e-02]]

  [[-1.46844238e-02  3.44186113e-03 -1.77919064e-02 ... -8.46074242e-03
     6.71914499e-03  7.93932751e-03]
   [ 9.83718419e-05 -1.50503712e-02 -2.19428316e-02 ... -6.08029426e-04
     1.09748142e-02  1.70133170e-02]
   [ 3.14621837e-03  6.18753815e-03 -4.37540887e-03 ...  5.42156165e-03
    -1.21137674e-03  1.20026246e-02]
   ...
   [ 2.44885031e-03 -2.21731258e-03 -8.76664650e-03 ...  5.95734082e-03
     5.42657654e-05  9.08257323e-04]
   [-7.14963069e-04 -3.89190554e-03  1.96661167e-02 ...  2.59200134e-03
     4.21909057e-03 -1.37526484e-03]
   [ 1.13401748e-02  3.97102581e-03 -1.20645259e-02 ...  1.18436781e-03
     3.10367160e-03  3.94907640e-03]]

  [[-2.65658312e-02  1.68744717e-02 -6.13924069e-03 ... -9.36840544e-04
    -7.42561556e-03  3.58095253e-03]
   [-5.88818127e-03  9.68455058e-03 -7.83738494e-03 ... -1.15223173e-02
     1.14958910e-02 -8.82715336e-04]
